{"learner":{"attributes":{"scikit_learn":"{\"_estimator_type\": \"regressor\"}"},"feature_names":["component_1","component_2"],"feature_types":["float","float"],"gradient_booster":{"model":{"gbtree_model_param":{"num_parallel_tree":"1","num_trees":"100"},"iteration_indptr":[0,1,2,3,4,5,6,7,8,9,10,11,12,13,14,15,16,17,18,19,20,21,22,23,24,25,26,27,28,29,30,31,32,33,34,35,36,37,38,39,40,41,42,43,44,45,46,47,48,49,50,51,52,53,54,55,56,57,58,59,60,61,62,63,64,65,66,67,68,69,70,71,72,73,74,75,76,77,78,79,80,81,82,83,84,85,86,87,88,89,90,91,92,93,94,95,96,97,98,99,100],"tree_info":[0,0,0,0,0,0,0,0,0,0,0,0,0,0,0,0,0,0,0,0,0,0,0,0,0,0,0,0,0,0,0,0,0,0,0,0,0,0,0,0,0,0,0,0,0,0,0,0,0,0,0,0,0,0,0,0,0,0,0,0,0,0,0,0,0,0,0,0,0,0,0,0,0,0,0,0,0,0,0,0,0,0,0,0,0,0,0,0,0,0,0,0,0,0,0,0,0,0,0,0],"trees":[{"base_weights":[-3.013075E-1,-1.5079194E0,1.5834646E0,3.0512124E-1,-2.0426798E0,1.6672696E0,-7.026393E-1,-2.4517804E-2,2.6508525E-1,-2.7243432E-1,-1.7201679E-2,1.5316267E-1,4.7858587E-1],"categories":[],"categories_nodes":[],"categories_segments":[],"categories_sizes":[],"default_left":[0,0,0,0,0,0,0,0,0,0,0,0,0],"id":0,"left_children":[1,3,5,7,9,11,-1,-1,-1,-1,-1,-1,-1],"loss_changes":[4.7190547E3,1.2270945E3,5.961697E2,3.737068E2,1.2453647E3,3.323506E2,0E0,0E0,0E0,0E0,0E0,0E0,0E0],"parents":[2147483647,0,0,1,1,2,2,3,3,4,4,5,5],"right_children":[2,4,6,8,10,12,-1,-1,-1,-1,-1,-1,-1],"split_conditions":[3.9023522E-1,-1.3135169E0,3.13133E0,-1.4796252E0,-8.0875084E-2,2.4411936E0,-7.026393E-1,-2.4517804E-2,2.6508525E-1,-2.7243432E-1,-1.7201679E-2,1.5316267E-1,4.7858587E-1],"split_indices":[0,0,0,0,0,0,0,0,0,0,0,0,0],"split_type":[0,0,0,0,0,0,0,0,0,0,0,0,0],"sum_hessian":[2.073E3,1.264E3,8.09E2,2.88E2,9.76E2,8.02E2,7E0,2.34E2,5.4E1,7.15E2,2.61E2,7.7E2,3.2E1],"tree_param":{"num_deleted":"0","num_feature":"2","num_nodes":"13","size_leaf_vector":"1"}},{"base_weights":[2.1271223E-2,4.9792683E-1,-2.264599E0,-1.9298099E-1,3.130129E0,-3.299956E0,-3.1657663E-1,1.9852956E-1,-1.2903485E-1,3.7397787E-1,-6.6686696E-3,-2.675626E-1,-9.4753057E-1,2.5039575E-1,-5.5658317E-1],"categories":[],"categories_nodes":[],"categories_segments":[],"categories_sizes":[],"default_left":[0,0,0,0,0,0,0,0,0,0,0,0,0,0,0],"id":1,"left_children":[1,3,5,7,9,11,13,-1,-1,-1,-1,-1,-1,-1,-1],"loss_changes":[2.2543643E3,3.1140627E3,7.1898816E2,3.2462935E3,6.940708E2,8.7296875E2,1.8646494E3,0E0,0E0,0E0,0E0,0E0,0E0,0E0,0E0],"parents":[2147483647,0,0,1,1,2,2,3,3,4,4,5,5,6,6],"right_children":[2,4,6,8,10,12,14,-1,-1,-1,-1,-1,-1,-1,-1],"split_conditions":[1.2975291E0,3.559448E-2,2.1189039E0,-9.033134E-1,1.1499323E0,2.063164E0,2.7636616E0,1.9852956E-1,-1.2903485E-1,3.7397787E-1,-6.6686696E-3,-2.675626E-1,-9.4753057E-1,2.5039575E-1,-5.5658317E-1],"split_indices":[1,1,1,1,1,1,1,0,0,0,0,0,0,0,0],"split_type":[0,0,0,0,0,0,0,0,0,0,0,0,0,0,0],"sum_hessian":[2.067E3,1.711E3,3.56E2,1.356E3,3.55E2,2.32E2,1.24E2,4.54E2,9.02E2,2.98E2,5.7E1,2.12E2,2E1,8.1E1,4.3E1],"tree_param":{"num_deleted":"0","num_feature":"2","num_nodes":"15","size_leaf_vector":"1"}},{"base_weights":[1.298044E-1,5.876891E-1,-1.9705485E0,-1.614117E-2,2.9308794E0,-5.525663E0,-1.137978E0,1.0678152E-1,-9.615355E-2,2.2011662E-1,6.553631E-1,-3.3624431E-1,-8.068887E-1,2.7088985E-1,-1.7128436E-1],"categories":[],"categories_nodes":[],"categories_segments":[],"categories_sizes":[],"default_left":[0,0,0,0,0,0,0,0,0,0,0,0,0,0,0],"id":2,"left_children":[1,3,5,7,9,11,13,-1,-1,-1,-1,-1,-1,-1,-1],"loss_changes":[1.9611423E3,2.3685718E3,1.0740693E3,1.3660154E3,8.9231885E2,3.5247607E2,6.6143665E2,0E0,0E0,0E0,0E0,0E0,0E0,0E0,0E0],"parents":[2147483647,0,0,1,1,2,2,3,3,4,4,5,5,6,6],"right_children":[2,4,6,8,10,12,14,-1,-1,-1,-1,-1,-1,-1,-1],"split_conditions":[1.2106973E0,1.9605825E-2,1.4176475E0,-5.658159E-1,1.0668417E0,1.322976E0,1.5496203E0,1.0678152E-1,-9.615355E-2,2.2011662E-1,6.553631E-1,-3.3624431E-1,-8.068887E-1,2.7088985E-1,-1.7128436E-1],"split_indices":[1,1,1,1,1,1,1,0,0,0,0,0,0,0,0],"split_type":[0,0,0,0,0,0,0,0,0,0,0,0,0,0,0],"sum_hessian":[2.037E3,1.673E3,3.64E2,1.331E3,3.42E2,6.8E1,2.96E2,6.2E2,7.11E2,2.86E2,5.6E1,3.8E1,3E1,3.8E1,2.58E2],"tree_param":{"num_deleted":"0","num_feature":"2","num_nodes":"15","size_leaf_vector":"1"}},{"base_weights":[2.7500832E-1,6.867526E-1,-1.4310305E0,-6.089079E-2,3.9220302E0,-1.2639024E0,-1.2445816E0,1.2741481E-1,-1.3501355E-1,3.257484E-1,9.0371555E-1,-2.6794794E-1,8.288859E-3],"categories":[],"categories_nodes":[],"categories_segments":[],"categories_sizes":[],"default_left":[0,0,0,0,0,0,0,0,0,0,0,0,0],"id":3,"left_children":[1,3,5,7,9,11,-1,-1,-1,-1,-1,-1,-1],"loss_changes":[1.4775365E3,4.097743E3,7.3718964E2,2.3718013E3,1.051519E3,7.7044257E2,0E0,0E0,0E0,0E0,0E0,0E0,0E0],"parents":[2147483647,0,0,1,1,2,2,3,3,4,4,5,5],"right_children":[2,4,6,8,10,12,-1,-1,-1,-1,-1,-1,-1],"split_conditions":[1.1499323E0,4.6063494E-3,3.2371075E0,-5.4565895E-1,1.0668417E0,1.824001E0,-1.2445816E0,1.2741481E-1,-1.3501355E-1,3.257484E-1,9.0371555E-1,-2.6794794E-1,8.288859E-3],"split_indices":[1,1,1,1,1,1,0,0,0,0,0,0,0],"split_type":[0,0,0,0,0,0,0,0,0,0,0,0,0],"sum_hessian":[2.101E3,1.693E3,4.08E2,1.376E3,3.17E2,4.03E2,5E0,6.76E2,7E2,2.82E2,3.5E1,1.96E2,2.07E2],"tree_param":{"num_deleted":"0","num_feature":"2","num_nodes":"13","size_leaf_vector":"1"}},{"base_weights":[1.4222361E-1,6.0945386E-1,-2.1517363E0,1.815812E0,1.7643379E-1,-3.3631568E0,6.541745E-2,-1.154209E-1,2.8005096E-1,-6.0600407E-2,1.9092356E-1,-2.9127592E-1,-8.755555E-1,2.2942404E-1,-3.9479178E-1],"categories":[],"categories_nodes":[],"categories_segments":[],"categories_sizes":[],"default_left":[0,0,0,0,0,0,0,0,0,0,0,0,0,0,0],"id":4,"left_children":[1,3,5,7,9,11,13,-1,-1,-1,-1,-1,-1,-1,-1],"loss_changes":[2.223168E3,8.9973566E2,9.429729E2,1.3339128E3,1.7216794E3,5.258176E2,1.1271843E3,0E0,0E0,0E0,0E0,0E0,0E0,0E0,0E0],"parents":[2147483647,0,0,1,1,2,2,3,3,4,4,5,5,6,6],"right_children":[2,4,6,8,10,12,14,-1,-1,-1,-1,-1,-1,-1,-1],"split_conditions":[1.2975291E0,-9.243706E-1,2.1189039E0,-1.5057735E0,-2.6150107E-2,2.063164E0,2.7636616E0,-1.154209E-1,2.8005096E-1,-6.0600407E-2,1.9092356E-1,-2.9127592E-1,-8.755555E-1,2.2942404E-1,-3.9479178E-1],"split_indices":[1,1,1,1,1,1,1,0,0,0,0,0,0,0,0],"split_type":[0,0,0,0,0,0,0,0,0,0,0,0,0,0,0],"sum_hessian":[2.072E3,1.722E3,3.5E2,4.54E2,1.268E3,2.26E2,1.24E2,1.13E2,3.41E2,8.74E2,3.94E2,2.1E2,1.6E1,8E1,4.4E1],"tree_param":{"num_deleted":"0","num_feature":"2","num_nodes":"15","size_leaf_vector":"1"}},{"base_weights":[-1.3175134E-1,-1.0015138E0,1.0983069E0,1.1694298E0,-1.7030041E0,2.9365005E0,5.5344033E-1,3.7459037E-1,7.700874E-2,-4.369014E-1,-1.4075784E-1,1.0263934E-1,4.5187527E-1,-3.9612222E-2,2.245384E-1],"categories":[],"categories_nodes":[],"categories_segments":[],"categories_sizes":[],"default_left":[0,0,0,0,0,0,0,0,0,0,0,0,0,0,0],"id":5,"left_children":[1,3,5,7,9,11,13,-1,-1,-1,-1,-1,-1,-1,-1],"loss_changes":[2.239244E3,1.8690623E3,8.667363E2,3.05784E2,7.2396265E2,5.937716E2,1.0773159E3,0E0,0E0,0E0,0E0,0E0,0E0,0E0,0E0],"parents":[2147483647,0,0,1,1,2,2,3,3,4,4,5,5,6,6],"right_children":[2,4,6,8,10,12,14,-1,-1,-1,-1,-1,-1,-1,-1],"split_conditions":[3.146788E-1,-1.3135169E0,6.883118E-1,-3.1854203E0,-1.1543598E0,4.5507368E-1,1.6669636E0,3.7459037E-1,7.700874E-2,-4.369014E-1,-1.4075784E-1,1.0263934E-1,4.5187527E-1,-3.9612222E-2,2.245384E-1],"split_indices":[0,0,0,0,0,0,0,0,0,0,0,0,0,0,0],"split_type":[0,0,0,0,0,0,0,0,0,0,0,0,0,0,0],"sum_hessian":[2.091E3,1.225E3,8.66E2,2.99E2,9.26E2,1.97E2,6.69E2,3.9E1,2.6E2,9.1E1,8.35E2,9E1,1.07E2,4.29E2,2.4E2],"tree_param":{"num_deleted":"0","num_feature":"2","num_nodes":"15","size_leaf_vector":"1"}},{"base_weights":[7.662358E-2,-8.0398655E-1,9.1577965E-1,4.646815E0,-1.0267845E0,1.5238382E0,-3.132669E-1,1.379586E-1,1.1326476E0,-4.7154557E-2,-2.4973376E-1,1.0834636E-1,6.291184E-1,-2.584717E-1,1.2826224E-1],"categories":[],"categories_nodes":[],"categories_segments":[],"categories_sizes":[],"default_left":[0,0,0,0,0,0,0,0,0,0,0,0,0,0,0],"id":6,"left_children":[1,3,5,7,9,11,13,-1,-1,-1,-1,-1,-1,-1,-1],"loss_changes":[1.5355754E3,1.2362009E3,7.956389E2,8.5733356E2,7.9491797E2,1.4879691E3,1.2829341E3,0E0,0E0,0E0,0E0,0E0,0E0,0E0,0E0],"parents":[2147483647,0,0,1,1,2,2,3,3,4,4,5,5,6,6],"right_children":[2,4,6,8,10,12,14,-1,-1,-1,-1,-1,-1,-1,-1],"split_conditions":[-8.0875084E-2,-3.1854203E0,1.42106E0,-3.2371993E0,-6.211954E-1,1.2835321E0,1.7223438E0,1.379586E-1,1.1326476E0,-4.7154557E-2,-2.4973376E-1,1.0834636E-1,6.291184E-1,-2.584717E-1,1.2826224E-1],"split_indices":[0,0,0,0,0,0,0,0,0,0,0,0,0,0,0],"split_type":[0,0,0,0,0,0,0,0,0,0,0,0,0,0,0],"sum_hessian":[2.076E3,1.013E3,1.063E3,3.9E1,9.74E2,7.11E2,3.52E2,2.7E1,1.2E1,7.08E2,2.66E2,6.52E2,5.9E1,1.45E2,2.07E2],"tree_param":{"num_deleted":"0","num_feature":"2","num_nodes":"15","size_leaf_vector":"1"}},{"base_weights":[1.7030096E-2,4.818345E-1,-1.8125594E0,3.820182E-1,1.013567E1,-2.9230251E0,-7.040109E-1,-1.4145063E-2,1.5956552E-1,1.5622867E0,2.0097151E-1,-2.1315046E-1,-8.473018E-1,3.401319E-1,-1.5582098E-1],"categories":[],"categories_nodes":[],"categories_segments":[],"categories_sizes":[],"default_left":[0,0,0,0,0,0,0,0,0,0,0,0,0,0,0],"id":7,"left_children":[1,3,5,7,9,11,13,-1,-1,-1,-1,-1,-1,-1,-1],"loss_changes":[1.7756608E3,1.6005383E3,5.186572E2,1.0478374E3,7.266107E2,9.0884875E2,7.522416E2,0E0,0E0,0E0,0E0,0E0,0E0,0E0,0E0],"parents":[2147483647,0,0,1,1,2,2,3,3,4,4,5,5,6,6],"right_children":[2,4,6,8,10,12,14,-1,-1,-1,-1,-1,-1,-1,-1],"split_conditions":[1.1499323E0,1.106004E0,1.824001E0,-1.9142833E-1,1.1283262E0,1.7187315E0,1.9663684E0,-1.4145063E-2,1.5956552E-1,1.5622867E0,2.0097151E-1,-2.1315046E-1,-8.473018E-1,3.401319E-1,-1.5582098E-1],"split_indices":[1,1,1,1,1,1,1,0,0,0,0,0,0,0,0],"split_type":[0,0,0,0,0,0,0,0,0,0,0,0,0,0,0],"sum_hessian":[2.086E3,1.664E3,4.22E2,1.648E3,1.6E1,2.1E2,2.12E2,1.152E3,4.96E2,9E0,7E0,1.85E2,2.5E1,3.6E1,1.76E2],"tree_param":{"num_deleted":"0","num_feature":"2","num_nodes":"15","size_leaf_vector":"1"}},{"base_weights":[6.2700145E-2,-8.188417E-1,1.5284656E0,1.4245993E0,-1.5011972E0,7.5652905E0,1.1572895E0,8.842451E-2,3.0848274E-1,-2.0375131E-1,-7.681488E-2,4.3626425E-1,9.5388097E-1,1.6807991E-1,-1.5440665E-1],"categories":[],"categories_nodes":[],"categories_segments":[],"categories_sizes":[],"default_left":[0,0,0,0,0,0,0,0,0,0,0,0,0,0,0],"id":8,"left_children":[1,3,5,7,9,11,13,-1,-1,-1,-1,-1,-1,-1,-1],"loss_changes":[2.6837207E3,1.9876179E3,1.73901E3,2.69097E2,3.896145E2,2.4280762E2,1.043436E3,0E0,0E0,0E0,0E0,0E0,0E0,0E0,0E0],"parents":[2147483647,0,0,1,1,2,2,3,3,4,4,5,5,6,6],"right_children":[2,4,6,8,10,12,14,-1,-1,-1,-1,-1,-1,-1,-1],"split_conditions":[4.5507368E-1,-1.2752857E0,5.662066E-1,-1.4796252E0,-3.924223E-1,4.8889992E-1,1.9222976E0,8.842451E-2,3.0848274E-1,-2.0375131E-1,-7.681488E-2,4.3626425E-1,9.5388097E-1,1.6807991E-1,-1.5440665E-1],"split_indices":[0,0,0,0,0,0,0,0,0,0,0,0,0,0,0],"split_type":[0,0,0,0,0,0,0,0,0,0,0,0,0,0,0],"sum_hessian":[2.075E3,1.296E3,7.79E2,3.02E2,9.94E2,4.4E1,7.35E2,2.29E2,7.3E1,5.73E2,4.21E2,1.8E1,2.6E1,6.16E2,1.19E2],"tree_param":{"num_deleted":"0","num_feature":"2","num_nodes":"15","size_leaf_vector":"1"}},{"base_weights":[1.0723256E-2,2.8434625E-1,-1.3542413E0,-1.6802704E-1,1.8487018E0,-3.3291192E0,1.898867E-1,7.4483724E-3,-5.496186E-1,2.204932E-1,-4.243807E-2,-2.1666443E-1,-5.855306E-1,4.8404213E-2,-5.2709776E-1],"categories":[],"categories_nodes":[],"categories_segments":[],"categories_sizes":[],"default_left":[0,0,0,0,0,0,0,0,0,0,0,0,0,0,0],"id":9,"left_children":[1,3,5,7,9,11,13,-1,-1,-1,-1,-1,-1,-1,-1],"loss_changes":[7.6939215E2,1.2146769E3,1.0496478E3,1.7215343E3,3.1268604E2,4.3074463E2,3.1418192E2,0E0,0E0,0E0,0E0,0E0,0E0,0E0,0E0],"parents":[2147483647,0,0,1,1,2,2,3,3,4,4,5,5,6,6],"right_children":[2,4,6,8,10,12,14,-1,-1,-1,-1,-1,-1,-1,-1],"split_conditions":[1.2975291E0,-2.6150107E-2,1.8775563E0,-8.849536E-2,1.1499323E0,1.6479793E0,3.2371075E0,7.4483724E-3,-5.496186E-1,2.204932E-1,-4.243807E-2,-2.1666443E-1,-5.855306E-1,4.8404213E-2,-5.2709776E-1],"split_indices":[1,1,1,1,1,1,1,0,0,0,0,0,0,0,0],"split_type":[0,0,0,0,0,0,0,0,0,0,0,0,0,0,0],"sum_hessian":[2.058E3,1.715E3,3.43E2,1.331E3,3.84E2,1.5E2,1.93E2,1.274E3,5.7E1,3.32E2,5.2E1,1.04E2,4.6E1,1.84E2,9E0],"tree_param":{"num_deleted":"0","num_feature":"2","num_nodes":"15","size_leaf_vector":"1"}},{"base_weights":[-1.1633827E-1,-1.2905021E0,9.882813E-1,5.7930493E-1,-2.2432275E0,7.842306E-1,3.385648E0,2.500396E-1,2.9080553E-2,-4.603993E-1,-1.8637295E-1,9.336951E-2,-2.7515265E-1,8.770326E-1,1.9688544E-1],"categories":[],"categories_nodes":[],"categories_segments":[],"categories_sizes":[],"default_left":[0,0,0,0,0,0,0,0,0,0,0,0,0,0,0],"id":10,"left_children":[1,3,5,7,9,11,13,-1,-1,-1,-1,-1,-1,-1,-1],"loss_changes":[2.673104E3,1.7809312E3,5.1685876E2,1.866038E2,5.845088E2,5.204698E2,6.159376E2,0E0,0E0,0E0,0E0,0E0,0E0,0E0,0E0],"parents":[2147483647,0,0,1,1,2,2,3,3,4,4,5,5,6,6],"right_children":[2,4,6,8,10,12,14,-1,-1,-1,-1,-1,-1,-1,-1],"split_conditions":[-8.0875084E-2,-1.2063456E0,2.0818658E0,-3.1854203E0,-1.1166074E0,1.9222976E0,2.169377E0,2.500396E-1,2.9080553E-2,-4.603993E-1,-1.8637295E-1,9.336951E-2,-2.7515265E-1,8.770326E-1,1.9688544E-1],"split_indices":[0,0,0,0,0,0,0,0,0,0,0,0,0,0,0],"split_type":[0,0,0,0,0,0,0,0,0,0,0,0,0,0,0],"sum_hessian":[2.059E3,9.98E2,1.061E3,3.37E2,6.61E2,9.79E2,8.2E1,4.3E1,2.94E2,9E1,5.71E2,9.4E2,3.9E1,1.6E1,6.6E1],"tree_param":{"num_deleted":"0","num_feature":"2","num_nodes":"15","size_leaf_vector":"1"}},{"base_weights":[-2.696504E-1,5.3357266E-2,-2.3193872E0,-7.409628E-1,1.2902807E0,-3.2857056E0,9.423124E-1,6.8624006E-3,-3.0412328E-1,5.4130226E-1,1.0113633E-1,-2.242833E-1,-5.537841E-1,8.0582964E-1,-3.4196854E-1],"categories":[],"categories_nodes":[],"categories_segments":[],"categories_sizes":[],"default_left":[0,0,0,0,0,0,0,0,0,0,0,0,0,0,0],"id":11,"left_children":[1,3,5,7,9,11,13,-1,-1,-1,-1,-1,-1,-1,-1],"loss_changes":[1.3666584E3,1.7537594E3,8.887634E2,2.0244943E3,7.9715894E2,4.9724536E2,2.0451508E3,0E0,0E0,0E0,0E0,0E0,0E0,0E0,0E0],"parents":[2147483647,0,0,1,1,2,2,3,3,4,4,5,5,6,6],"right_children":[2,4,6,8,10,12,14,-1,-1,-1,-1,-1,-1,-1,-1],"split_conditions":[1.4987478E0,-2.3122558E-1,2.444582E0,-4.08926E-1,-2.0942259E-1,2.0815828E0,2.7636616E0,6.8624006E-3,-3.0412328E-1,5.4130226E-1,1.0113633E-1,-2.242833E-1,-5.537841E-1,8.0582964E-1,-3.4196854E-1],"split_indices":[1,1,1,1,1,1,1,0,0,0,0,0,0,0,0],"split_type":[0,0,0,0,0,0,0,0,0,0,0,0,0,0,0],"sum_hessian":[2.063E3,1.783E3,2.8E2,1.086E3,6.97E2,2.16E2,6.4E1,8.04E2,2.82E2,4.3E1,6.54E2,1.49E2,6.7E1,2.4E1,4E1],"tree_param":{"num_deleted":"0","num_feature":"2","num_nodes":"15","size_leaf_vector":"1"}},{"base_weights":[1.1611035E-1,3.449758E0,6.752744E-3,-3.7927985E-1,7.2902894E0,-5.7285805E0,1.4379083E-1,-3.6178723E-1,1.1208784E-1,5.923285E-1,1.1521552E0,8.307941E-2,-6.8972415E-1,4.0828403E-2,-8.554694E-2],"categories":[],"categories_nodes":[],"categories_segments":[],"categories_sizes":[],"default_left":[0,0,0,0,0,0,0,0,0,0,0,0,0,0,0],"id":12,"left_children":[1,3,5,7,9,11,13,-1,-1,-1,-1,-1,-1,-1,-1],"loss_changes":[7.5753186E2,9.733307E2,1.5829594E3,1.6924081E2,1.2263159E2,3.660172E2,5.2022253E2,0E0,0E0,0E0,0E0,0E0,0E0,0E0,0E0],"parents":[2147483647,0,0,1,1,2,2,3,3,4,4,5,5,6,6],"right_children":[2,4,6,8,10,12,14,-1,-1,-1,-1,-1,-1,-1,-1],"split_conditions":[-1.6375363E0,-1.7544708E0,-1.5057735E0,-1.9730474E0,-1.6642889E0,-1.614345E0,1.1499323E0,-3.6178723E-1,1.1208784E-1,5.923285E-1,1.1521552E0,8.307941E-2,-6.8972415E-1,4.0828403E-2,-8.554694E-2],"split_indices":[1,1,1,1,1,1,1,0,0,0,0,0,0,0,0],"split_type":[0,0,0,0,0,0,0,0,0,0,0,0,0,0,0],"sum_hessian":[2.077E3,6.5E1,2.012E3,3.3E1,3.2E1,4.6E1,1.966E3,1E1,2.3E1,2.6E1,6E0,7E0,3.9E1,1.555E3,4.11E2],"tree_param":{"num_deleted":"0","num_feature":"2","num_nodes":"15","size_leaf_vector":"1"}},{"base_weights":[-3.1109685E-1,-9.6949875E-1,7.41749E-1,3.966391E-1,-1.1591206E0,4.8908405E0,3.8141933E-1,-1.3498932E-2,5.090052E-1,-8.329016E-1,-1.1003655E-1,1.5346926E-1,7.458548E-1,4.937568E-2,-5.9301764E-1],"categories":[],"categories_nodes":[],"categories_segments":[],"categories_sizes":[],"default_left":[0,0,0,0,0,0,0,0,0,0,0,0,0,0,0],"id":13,"left_children":[1,3,5,7,9,11,13,-1,-1,-1,-1,-1,-1,-1,-1],"loss_changes":[1.4446459E3,3.3256116E2,1.1971571E3,3.9242587E2,4.6518237E2,5.400802E2,5.2690015E2,0E0,0E0,0E0,0E0,0E0,0E0,0E0,0E0],"parents":[2147483647,0,0,1,1,2,2,3,3,4,4,5,5,6,6],"right_children":[2,4,6,8,10,12,14,-1,-1,-1,-1,-1,-1,-1,-1],"split_conditions":[3.9023522E-1,-1.703931E0,5.4415953E-1,-1.8357108E0,-1.6721369E0,4.5507368E-1,3.13133E0,-1.3498932E-2,5.090052E-1,-8.329016E-1,-1.1003655E-1,1.5346926E-1,7.458548E-1,4.937568E-2,-5.9301764E-1],"split_indices":[0,0,0,0,0,0,0,0,0,0,0,0,0,0,0],"split_type":[0,0,0,0,0,0,0,0,0,0,0,0,0,0,0],"sum_hessian":[2.082E3,1.281E3,8.01E2,1.56E2,1.125E3,6.3E1,7.38E2,1.41E2,1.5E1,8E0,1.117E3,2.8E1,3.5E1,7.26E2,1.2E1],"tree_param":{"num_deleted":"0","num_feature":"2","num_nodes":"15","size_leaf_vector":"1"}},{"base_weights":[4.7504524E-4,-4.444503E-1,5.762314E-1,-3.0287448E-1,-7.221571E0,5.2918944E0,1.14220634E-1,3.5960216E-2,-1.1891457E-1,-8.5866606E-1,-4.45178E-1,6.091515E-1,3.9442196E-1,2.096221E-2,-6.390547E-1],"categories":[],"categories_nodes":[],"categories_segments":[],"categories_sizes":[],"default_left":[0,0,0,0,0,0,0,0,0,0,0,0,0,0,0],"id":14,"left_children":[1,3,5,7,9,11,13,-1,-1,-1,-1,-1,-1,-1,-1],"loss_changes":[5.335991E2,1.1251976E3,1.9776437E3,6.768059E2,5.2518433E1,6.326172E1,5.151669E2,0E0,0E0,0E0,0E0,0E0,0E0,0E0,0E0],"parents":[2147483647,0,0,1,1,2,2,3,3,4,4,5,5,6,6],"right_children":[2,4,6,8,10,12,14,-1,-1,-1,-1,-1,-1,-1,-1],"split_conditions":[-1.9142833E-1,-2.0942259E-1,-1.2609066E-1,-5.4565895E-1,-1.9572985E-1,-1.5231568E-1,3.2371075E0,3.5960216E-2,-1.1891457E-1,-8.5866606E-1,-4.45178E-1,6.091515E-1,3.9442196E-1,2.096221E-2,-6.390547E-1],"split_indices":[1,1,1,1,1,1,1,0,0,0,0,0,0,0,0],"split_type":[0,0,0,0,0,0,0,0,0,0,0,0,0,0,0],"sum_hessian":[2.081E3,1.174E3,9.07E2,1.151E3,2.3E1,8E1,8.27E2,6.59E2,4.92E2,1.4E1,9E0,4.8E1,3.2E1,8.16E2,1.1E1],"tree_param":{"num_deleted":"0","num_feature":"2","num_nodes":"15","size_leaf_vector":"1"}},{"base_weights":[2.162608E-2,-6.852556E-1,1.1037186E0,4.9624255E-1,-1.0105782E0,1.1963978E0,-7.4527097E-1,6.003303E-1,3.0804787E-2,-1.472707E-1,-2.00976E-2,9.590688E-2,6.4851636E-1],"categories":[],"categories_nodes":[],"categories_segments":[],"categories_sizes":[],"default_left":[0,0,0,0,0,0,0,0,0,0,0,0,0],"id":15,"left_children":[1,3,5,7,9,11,-1,-1,-1,-1,-1,-1,-1],"loss_changes":[1.6009512E3,4.871112E2,6.6472864E2,2.8212415E2,3.7122552E2,1.02177026E3,0E0,0E0,0E0,0E0,0E0,0E0,0E0],"parents":[2147483647,0,0,1,1,2,2,3,3,4,4,5,5],"right_children":[2,4,6,8,10,12,-1,-1,-1,-1,-1,-1,-1],"split_conditions":[3.784519E-1,-1.3566291E0,3.13133E0,-3.2744136E0,-2.9165718E-1,2.4411936E0,-7.4527097E-1,6.003303E-1,3.0804787E-2,-1.472707E-1,-2.00976E-2,9.590688E-2,6.4851636E-1],"split_indices":[0,0,0,0,0,0,0,0,0,0,0,0,0],"split_type":[0,0,0,0,0,0,0,0,0,0,0,0,0],"sum_hessian":[2.091E3,1.265E3,8.26E2,2.73E2,9.92E2,8.18E2,8E0,8E0,2.65E2,6.31E2,3.61E2,7.84E2,3.4E1],"tree_param":{"num_deleted":"0","num_feature":"2","num_nodes":"13","size_leaf_vector":"1"}},{"base_weights":[1.4784205E-2,3.0467647E-1,-1.1385034E0,2.2745505E-1,8.6706126E-1,-3.0512147E0,-5.808067E-1,-2.1396559E-2,1.0890927E-1,-1.50445E-1,-4.9762717E-1,9.9423057E-1,-8.470617E-2],"categories":[],"categories_nodes":[],"categories_segments":[],"categories_sizes":[],"default_left":[0,0,0,0,0,0,0,0,0,0,0,0,0],"id":16,"left_children":[1,3,5,7,-1,9,11,-1,-1,-1,-1,-1,-1],"loss_changes":[6.873933E2,1.0594543E3,4.3878033E2,6.1981445E2,0E0,2.694311E2,9.078098E2,0E0,0E0,0E0,0E0,0E0,0E0],"parents":[2147483647,0,0,1,1,2,2,3,3,5,5,6,6],"right_children":[2,4,6,8,-1,10,12,-1,-1,-1,-1,-1,-1],"split_conditions":[1.1499323E0,1.106004E0,1.4176475E0,-2.3122558E-1,8.6706126E-1,1.2975291E0,1.4407837E0,-2.1396559E-2,1.0890927E-1,-1.50445E-1,-4.9762717E-1,9.9423057E-1,-8.470617E-2],"split_indices":[1,1,1,1,0,1,1,0,0,0,0,0,0],"split_type":[0,0,0,0,0,0,0,0,0,0,0,0,0],"sum_hessian":[2.054E3,1.642E3,4.12E2,1.628E3,1.4E1,9.2E1,3.2E2,1.077E3,5.51E2,5.2E1,4E1,7E0,3.13E2],"tree_param":{"num_deleted":"0","num_feature":"2","num_nodes":"13","size_leaf_vector":"1"}},{"base_weights":[1.558141E-1,-2.044919E-1,7.8939676E-1,4.7364196E-1,-1.2310263E0,2.978735E0,-6.664488E-2,2.2426022E-2,4.0926147E-1,-6.9975173E-1,-7.903874E-2,2.1492565E-1,5.590081E-1,-6.0547966E-1,1.4036736E-2],"categories":[],"categories_nodes":[],"categories_segments":[],"categories_sizes":[],"default_left":[0,0,0,0,0,0,0,0,0,0,0,0,0,0,0],"id":17,"left_children":[1,3,5,7,9,11,13,-1,-1,-1,-1,-1,-1,-1,-1],"loss_changes":[4.7042572E2,9.152949E2,1.4001996E3,7.138666E2,1.3233811E3,4.4285718E2,6.6776587E2,0E0,0E0,0E0,0E0,0E0,0E0,0E0,0E0],"parents":[2147483647,0,0,1,1,2,2,3,3,4,4,5,5,6,6],"right_children":[2,4,6,8,10,12,14,-1,-1,-1,-1,-1,-1,-1,-1],"split_conditions":[-2.6150107E-2,-4.08926E-1,6.993282E-1,-4.4715363E-1,-3.8867643E-1,4.6197945E-1,8.2138836E-1,2.2426022E-2,4.0926147E-1,-6.9975173E-1,-7.903874E-2,2.1492565E-1,5.590081E-1,-6.0547966E-1,1.4036736E-2],"split_indices":[1,1,1,1,1,1,1,0,0,0,0,0,0,0,0],"split_type":[0,0,0,0,0,0,0,0,0,0,0,0,0,0,0],"sum_hessian":[2.059E3,1.313E3,7.46E2,7.91E2,5.22E2,2.09E2,5.37E2,7.41E2,5E1,3.6E1,4.86E2,1.6E2,4.9E1,1.7E1,5.2E2],"tree_param":{"num_deleted":"0","num_feature":"2","num_nodes":"15","size_leaf_vector":"1"}},{"base_weights":[-1.7668283E-1,1.2181436E-1,-1.6678033E0,-3.2891884E-1,9.0402764E-1,-3.7034457E0,-8.8689275E-2,1.9182302E-2,-1.193938E-1,2.6345226E-1,2.7214725E-2,-2.1035996E-1,-8.28496E-1,9.351099E-2,-3.286214E-1],"categories":[],"categories_nodes":[],"categories_segments":[],"categories_sizes":[],"default_left":[0,0,0,0,0,0,0,0,0,0,0,0,0,0,0],"id":18,"left_children":[1,3,5,7,9,11,13,-1,-1,-1,-1,-1,-1,-1,-1],"loss_changes":[9.2867194E2,6.1341565E2,1.1183215E3,4.9752768E2,6.947272E2,1.096689E3,6.479767E2,0E0,0E0,0E0,0E0,0E0,0E0,0E0,0E0],"parents":[2147483647,0,0,1,1,2,2,3,3,4,4,5,5,6,6],"right_children":[2,4,6,8,10,12,14,-1,-1,-1,-1,-1,-1,-1,-1],"split_conditions":[1.2975291E0,-2.3122558E-1,1.8775563E0,-5.186099E-1,-1.0446578E-1,1.6828982E0,2.7636616E0,1.9182302E-2,-1.193938E-1,2.6345226E-1,2.7214725E-2,-2.1035996E-1,-8.28496E-1,9.351099E-2,-3.286214E-1],"split_indices":[1,1,1,1,1,1,1,0,0,0,0,0,0,0,0],"split_type":[0,0,0,0,0,0,0,0,0,0,0,0,0,0,0],"sum_hessian":[2.085E3,1.738E3,3.47E2,1.103E3,6.35E2,1.51E2,1.96E2,6.89E2,4.14E2,1.69E2,4.66E2,1.13E2,3.8E1,1.49E2,4.7E1],"tree_param":{"num_deleted":"0","num_feature":"2","num_nodes":"15","size_leaf_vector":"1"}},{"base_weights":[-2.3224516E-1,-1.046222E0,5.4198235E-1,-6.753446E-1,-1.9834085E0,6.252985E-1,-6.7794585E-1,-9.489636E-2,3.5686606E-1,-6.158196E-1,-1.6107716E-1,4.933109E-2,4.6699676E-1],"categories":[],"categories_nodes":[],"categories_segments":[],"categories_sizes":[],"default_left":[0,0,0,0,0,0,0,0,0,0,0,0,0],"id":19,"left_children":[1,3,5,7,9,11,-1,-1,-1,-1,-1,-1,-1],"loss_changes":[1.3019368E3,3.486748E2,6.5022296E2,8.4296326E2,4.3344922E2,5.57167E2,0E0,0E0,0E0,0E0,0E0,0E0,0E0],"parents":[2147483647,0,0,1,1,2,2,3,3,4,4,5,5],"right_children":[2,4,6,8,10,12,-1,-1,-1,-1,-1,-1,-1],"split_conditions":[-6.175564E-2,-6.211954E-1,3.13133E0,-7.1998847E-1,-5.9363174E-1,2.4411936E0,-6.7794585E-1,-9.489636E-2,3.5686606E-1,-6.158196E-1,-1.6107716E-1,4.933109E-2,4.6699676E-1],"split_indices":[0,0,0,0,0,0,0,0,0,0,0,0,0],"split_type":[0,0,0,0,0,0,0,0,0,0,0,0,0],"sum_hessian":[2.064E3,1.006E3,1.058E3,7.22E2,2.84E2,1.047E3,1.1E1,6.79E2,4.3E1,2.2E1,2.62E2,1.015E3,3.2E1],"tree_param":{"num_deleted":"0","num_feature":"2","num_nodes":"13","size_leaf_vector":"1"}},{"base_weights":[1.787114E-2,2.5629827E-1,-1.0541592E0,-1.9335313E-1,1.1124879E0,-5.216874E-1,-8.33372E-1,-1.9480222E-1,1.050564E-3,3.5605675E-1,6.176254E-2,3.60177E-1,-1.048254E-1],"categories":[],"categories_nodes":[],"categories_segments":[],"categories_sizes":[],"default_left":[0,0,0,0,0,0,0,0,0,0,0,0,0],"id":20,"left_children":[1,3,5,7,9,-1,11,-1,-1,-1,-1,-1,-1],"loss_changes":[5.352433E2,6.5969763E2,3.4581958E2,4.0208054E2,7.1256384E2,0E0,3.497262E2,0E0,0E0,0E0,0E0,0E0,0E0],"parents":[2147483647,0,0,1,1,2,2,3,3,4,4,6,6],"right_children":[2,4,6,8,10,-1,12,-1,-1,-1,-1,-1,-1],"split_conditions":[1.2106973E0,-2.2238839E-1,1.2557119E0,-1.5057735E0,-1.5231568E-1,-5.216874E-1,1.2975291E0,-1.9480222E-1,1.050564E-3,3.5605675E-1,6.176254E-2,3.60177E-1,-1.048254E-1],"split_indices":[1,1,1,1,1,0,1,0,0,0,0,0,0],"split_type":[0,0,0,0,0,0,0,0,0,0,0,0,0],"sum_hessian":[2.092E3,1.712E3,3.8E2,1.123E3,5.89E2,1.8E1,3.62E2,1.16E2,1.007E3,9.8E1,4.91E2,1.6E1,3.46E2],"tree_param":{"num_deleted":"0","num_feature":"2","num_nodes":"13","size_leaf_vector":"1"}},{"base_weights":[-4.9010742E-1,-1.0048165E0,2.8411007E-1,-1.3236095E-1,-2.1849465E0,-2.9419081E-2,1.2263622E0,-4.092767E-2,4.308036E-1,-5.3014094E-1,-1.5651797E-1,6.997862E-2,-2.5116113E-1,1.0865753E0,4.1245338E-2],"categories":[],"categories_nodes":[],"categories_segments":[],"categories_sizes":[],"default_left":[0,0,0,0,0,0,0,0,0,0,0,0,0,0,0],"id":21,"left_children":[1,3,5,7,9,11,13,-1,-1,-1,-1,-1,-1,-1,-1],"loss_changes":[8.2278284E2,1.2764286E3,2.437605E2,8.7970886E2,1.0095923E3,1.1239746E3,1.611709E3,0E0,0E0,0E0,0E0,0E0,0E0,0E0,0E0],"parents":[2147483647,0,0,1,1,2,2,3,3,4,4,5,5,6,6],"right_children":[2,4,6,8,10,12,14,-1,-1,-1,-1,-1,-1,-1,-1],"split_conditions":[3.784519E-1,-6.3991E-1,1.7223438E0,-7.1998847E-1,-5.217817E-1,1.42106E0,1.7513428E0,-4.092767E-2,4.308036E-1,-5.3014094E-1,-1.5651797E-1,6.997862E-2,-2.5116113E-1,1.0865753E0,4.1245338E-2],"split_indices":[0,0,0,0,0,0,0,0,0,0,0,0,0,0,0],"split_type":[0,0,0,0,0,0,0,0,0,0,0,0,0,0,0],"sum_hessian":[2.063E3,1.239E3,8.24E2,7.13E2,5.26E2,6.19E2,2.05E2,6.72E2,4.1E1,8.6E1,4.4E2,4.79E2,1.4E2,1.5E1,1.9E2],"tree_param":{"num_deleted":"0","num_feature":"2","num_nodes":"15","size_leaf_vector":"1"}},{"base_weights":[2.8824148E-1,6.1087284E0,2.4256127E-1,1.0171806E-1,1.4425111E0,-3.0039225E0,4.0401143E-1,9.133065E-2,-6.704384E-1,4.8982444E-1,3.406998E-2],"categories":[],"categories_nodes":[],"categories_segments":[],"categories_sizes":[],"default_left":[0,0,0,0,0,0,0,0,0,0,0],"id":22,"left_children":[1,3,5,-1,-1,7,9,-1,-1,-1,-1],"loss_changes":[5.462333E2,6.628193E2,1.0730908E3,0E0,0E0,1.4121919E3,5.528943E2,0E0,0E0,0E0,0E0],"parents":[2147483647,0,0,1,1,2,2,5,5,6,6],"right_children":[2,4,6,-1,-1,8,10,-1,-1,-1,-1],"split_conditions":[-1.8775712E0,-1.9730474E0,-1.5057735E0,1.0171806E-1,1.4425111E0,-1.6375363E0,-1.4473058E0,9.133065E-2,-6.704384E-1,4.8982444E-1,3.406998E-2],"split_indices":[1,1,1,0,0,1,1,0,0,0,0],"split_type":[0,0,0,0,0,0,0,0,0,0,0],"sum_hessian":[2.059E3,1.5E1,2.044E3,1E1,5E0,9.6E1,1.948E3,4.7E1,4.9E1,2.6E1,1.922E3],"tree_param":{"num_deleted":"0","num_feature":"2","num_nodes":"11","size_leaf_vector":"1"}},{"base_weights":[8.7969124E-2,-2.3586838E-1,1.1199453E0,-9.5340386E-2,-3.904653E0,4.6463895E0,6.0029346E-2,-1.621413E-2,1.0154775E0,-3.2016638E-1,-7.45441E-1,2.765338E-1,1.1382803E0,2.8766422E-2,-5.2362335E-1],"categories":[],"categories_nodes":[],"categories_segments":[],"categories_sizes":[],"default_left":[0,0,0,0,0,0,0,0,0,0,0,0,0,0,0],"id":23,"left_children":[1,3,5,7,9,11,13,-1,-1,-1,-1,-1,-1,-1,-1],"loss_changes":[7.024028E2,8.245349E2,1.876064E3,1.0574803E3,1.2336456E2,1.4384211E3,4.6807892E2,0E0,0E0,0E0,0E0,0E0,0E0,0E0,0E0],"parents":[2147483647,0,0,1,1,2,2,3,3,4,4,5,5,6,6],"right_children":[2,4,6,8,10,12,14,-1,-1,-1,-1,-1,-1,-1,-1],"split_conditions":[1.0620549E0,9.313048E-1,1.3730123E0,9.049897E-1,1.0495584E0,1.3157382E0,2.9153438E0,-1.621413E-2,1.0154775E0,-3.2016638E-1,-7.45441E-1,2.765338E-1,1.1382803E0,2.8766422E-2,-5.2362335E-1],"split_indices":[0,0,0,0,0,0,0,0,0,0,0,0,0,0,0],"split_type":[0,0,0,0,0,0,0,0,0,0,0,0,0,0,0],"sum_hessian":[2.1E3,1.599E3,5.01E2,1.541E3,5.8E1,1.15E2,3.86E2,1.532E3,9E0,5E1,8E0,9.1E1,2.4E1,3.71E2,1.5E1],"tree_param":{"num_deleted":"0","num_feature":"2","num_nodes":"15","size_leaf_vector":"1"}},{"base_weights":[-2.4861343E-1,-4.8775756E-1,1.6521577E0,-3.4453678E-1,-7.438202E0,5.1391425E0,-1.048893E0,3.9568308E-1,-4.5966502E-2,-1.1559422E0,-6.267662E-1,2.2741325E-1,6.153752E-1,-2.4711752E-1,2.3695982E-1],"categories":[],"categories_nodes":[],"categories_segments":[],"categories_sizes":[],"default_left":[0,0,0,0,0,0,0,0,0,0,0,0,0,0,0],"id":24,"left_children":[1,3,5,7,9,11,13,-1,-1,-1,-1,-1,-1,-1,-1],"loss_changes":[9.394687E2,1.8240846E3,2.1810693E3,8.9269934E2,1.0603943E2,2.7959912E2,6.4278546E2,0E0,0E0,0E0,0E0,0E0,0E0,0E0,0E0],"parents":[2147483647,0,0,1,1,2,2,3,3,4,4,5,5,6,6],"right_children":[2,4,6,8,10,12,14,-1,-1,-1,-1,-1,-1,-1,-1],"split_conditions":[1.6669636E0,1.575049E0,1.8695925E0,-3.167279E0,1.5899119E0,1.7223438E0,2.4411936E0,3.9568308E-1,-4.5966502E-2,-1.1559422E0,-6.267662E-1,2.2741325E-1,6.153752E-1,-2.4711752E-1,2.3695982E-1],"split_indices":[0,0,0,0,0,0,0,0,0,0,0,0,0,0,0],"split_type":[0,0,0,0,0,0,0,0,0,0,0,0,0,0,0],"sum_hessian":[2.064E3,1.834E3,2.3E2,1.798E3,3.6E1,1E2,1.3E2,4.6E1,1.752E3,6E0,3E1,2.7E1,7.3E1,9.2E1,3.8E1],"tree_param":{"num_deleted":"0","num_feature":"2","num_nodes":"15","size_leaf_vector":"1"}},{"base_weights":[3.1899905E-1,3.5420507E-1,-6.4023465E-1,5.3337115E-1,-4.916826E-1,5.167744E-4,1.4476898E-1,-1.5451221E-1,1.9111636E-1],"categories":[],"categories_nodes":[],"categories_segments":[],"categories_sizes":[],"default_left":[0,0,0,0,0,0,0,0,0],"id":25,"left_children":[1,3,-1,5,7,-1,-1,-1,-1],"loss_changes":[4.9943127E2,3.1716254E2,0E0,8.3355774E2,9.293916E2,0E0,0E0,0E0,0E0],"parents":[2147483647,0,0,1,1,3,3,4,4],"right_children":[2,4,-1,6,8,-1,-1,-1,-1],"split_conditions":[3.2371075E0,1.2106973E0,-6.4023465E-1,-2.3919803E-1,2.1189039E0,5.167744E-4,1.4476898E-1,-1.5451221E-1,1.9111636E-1],"split_indices":[1,1,0,1,1,0,0,0,0],"split_type":[0,0,0,0,0,0,0,0,0],"sum_hessian":[2.1E3,2.09E3,1E1,1.725E3,3.65E2,1.094E3,6.31E2,2.54E2,1.11E2],"tree_param":{"num_deleted":"0","num_feature":"2","num_nodes":"9","size_leaf_vector":"1"}},{"base_weights":[-7.212694E-2,-7.997251E-1,5.664164E-1,6.2285745E-1,-1.4791458E0,3.2902067E0,3.8268542E-1,-3.727706E-1,9.832417E-2,-4.07475E-1,-1.203413E-1,2.2412482E-1,1.100836E0,4.4098426E-2,-5.0367963E-1],"categories":[],"categories_nodes":[],"categories_segments":[],"categories_sizes":[],"default_left":[0,0,0,0,0,0,0,0,0,0,0,0,0,0,0],"id":26,"left_children":[1,3,5,7,9,11,13,-1,-1,-1,-1,-1,-1,-1,-1],"loss_changes":[9.5428284E2,9.2879205E2,5.4622723E2,4.9127423E2,4.60297E2,5.339532E2,3.2638525E2,0E0,0E0,0E0,0E0,0E0,0E0,0E0,0E0],"parents":[2147483647,0,0,1,1,2,2,3,3,4,4,5,5,6,6],"right_children":[2,4,6,8,10,12,14,-1,-1,-1,-1,-1,-1,-1,-1],"split_conditions":[-1.3697246E-1,-1.2518148E0,2.597389E-2,-3.2371993E0,-1.1543598E0,7.1061873E-3,3.13133E0,-3.727706E-1,9.832417E-2,-4.07475E-1,-1.203413E-1,2.2412482E-1,1.100836E0,4.4098426E-2,-5.0367963E-1],"split_indices":[0,0,0,0,0,0,0,0,0,0,0,0,0,0,0],"split_type":[0,0,0,0,0,0,0,0,0,0,0,0,0,0,0],"sum_hessian":[2.052E3,9.59E2,1.093E3,3.1E2,6.49E2,6.8E1,1.025E3,2.3E1,2.87E2,6.1E1,5.88E2,6.1E1,7E0,1.015E3,1E1],"tree_param":{"num_deleted":"0","num_feature":"2","num_nodes":"15","size_leaf_vector":"1"}},{"base_weights":[7.6451845E-2,-2.098068E0,2.019505E-1,1.2713463E0,-7.0000153E0,4.5375977E0,1.3782844E-1,5.655541E-1,-5.1217503E-3,-7.87279E-1,-5.299464E-1,2.3049572E-1,9.2429143E-1,6.477216E-2,-6.1463024E-3],"categories":[],"categories_nodes":[],"categories_segments":[],"categories_sizes":[],"default_left":[0,0,0,0,0,0,0,0,0,0,0,0,0,0,0],"id":27,"left_children":[1,3,5,7,9,11,13,-1,-1,-1,-1,-1,-1,-1,-1],"loss_changes":[5.7514966E2,1.9083188E3,5.5317175E2,4.0037766E2,2.8035889E1,2.8334857E2,1.9961629E2,0E0,0E0,0E0,0E0,0E0,0E0,0E0,0E0],"parents":[2147483647,0,0,1,1,2,2,3,3,4,4,5,5,6,6],"right_children":[2,4,6,8,10,12,14,-1,-1,-1,-1,-1,-1,-1,-1],"split_conditions":[-1.5057735E0,-1.6375363E0,-1.4473058E0,-1.8775712E0,-1.5319778E0,-1.4592967E0,-5.186099E-1,5.655541E-1,-5.1217503E-3,-7.87279E-1,-5.299464E-1,2.3049572E-1,9.2429143E-1,6.477216E-2,-6.1463024E-3],"split_indices":[1,1,1,1,1,1,1,0,0,0,0,0,0,0,0],"split_type":[0,0,0,0,0,0,0,0,0,0,0,0,0,0,0],"sum_hessian":[2.105E3,1.14E2,1.991E3,6.8E1,4.6E1,2.8E1,1.963E3,1.5E1,5.3E1,2.8E1,1.8E1,2E1,8E0,5.51E2,1.412E3],"tree_param":{"num_deleted":"0","num_feature":"2","num_nodes":"15","size_leaf_vector":"1"}},{"base_weights":[-1.3443416E-1,-7.823009E-1,3.7878877E-1,4.6664145E-2,-1.4501709E0,5.0285034E0,2.581639E-1,-1.4159486E-2,9.453781E-1,-5.803817E-1,-1.2299263E-1,7.2485226E-1,4.1342148E-1,-3.3844706E-1,3.9958287E-2],"categories":[],"categories_nodes":[],"categories_segments":[],"categories_sizes":[],"default_left":[0,0,0,0,0,0,0,0,0,0,0,0,0,0,0],"id":28,"left_children":[1,3,5,7,9,11,13,-1,-1,-1,-1,-1,-1,-1,-1],"loss_changes":[6.845815E2,5.0388086E2,6.43143E2,7.221253E2,4.7613074E2,2.7607788E1,5.7882166E2,0E0,0E0,0E0,0E0,0E0,0E0,0E0,0E0],"parents":[2147483647,0,0,1,1,2,2,3,3,4,4,5,5,6,6],"right_children":[2,4,6,8,10,12,14,-1,-1,-1,-1,-1,-1,-1,-1],"split_conditions":[-2.9165718E-1,-1.1356487E0,-2.1268304E-1,-1.141502E0,-1.1166074E0,-2.6235917E-1,-1.3697246E-1,-1.4159486E-2,9.453781E-1,-5.803817E-1,-1.2299263E-1,7.2485226E-1,4.1342148E-1,-3.3844706E-1,3.9958287E-2],"split_indices":[0,0,0,0,0,0,0,0,0,0,0,0,0,0,0],"split_type":[0,0,0,0,0,0,0,0,0,0,0,0,0,0,0],"sum_hessian":[2.057E3,9.09E2,1.148E3,4.06E2,5.03E2,2.8E1,1.12E3,3.99E2,7E0,2.3E1,4.8E2,6E0,2.2E1,4.1E1,1.079E3],"tree_param":{"num_deleted":"0","num_feature":"2","num_nodes":"15","size_leaf_vector":"1"}},{"base_weights":[6.222582E-2,4.71214E0,5.84672E-3,2.6569846E-1,5.522979E0,-9.7674006E-1,5.8209058E-2,7.0308954E-1,2.9477108E-1,3.9477512E-1,-3.3752964E-4],"categories":[],"categories_nodes":[],"categories_segments":[],"categories_sizes":[],"default_left":[0,0,0,0,0,0,0,0,0,0,0],"id":29,"left_children":[1,3,5,-1,7,-1,9,-1,-1,-1,-1],"loss_changes":[5.470961E2,2.6985474E1,1.056309E3,0E0,4.5290833E1,0E0,4.9177856E2,0E0,0E0,0E0,0E0],"parents":[2147483647,0,0,1,1,2,2,4,4,6,6],"right_children":[2,4,6,-1,8,-1,10,-1,-1,-1,-1],"split_conditions":[-1.8283327E0,-1.9730474E0,-1.7544708E0,2.6569846E-1,-1.8775712E0,-9.7674006E-1,-1.6375363E0,7.0308954E-1,2.9477108E-1,3.9477512E-1,-3.3752964E-4],"split_indices":[1,1,1,0,1,0,1,0,0,0,0],"split_type":[0,0,0,0,0,0,0,0,0,0,0],"sum_hessian":[2.086E3,2.4E1,2.062E3,8E0,1.6E1,1E1,2.052E3,9E0,7E0,3.1E1,2.021E3],"tree_param":{"num_deleted":"0","num_feature":"2","num_nodes":"11","size_leaf_vector":"1"}},{"base_weights":[4.3433428E-2,-8.234202E-2,1.5256317E0,-3.6825027E-2,-9.808771E-1,2.5935519E0,-3.535154E0,6.819614E-3,-2.1541548E-1,1.0164075E-1,6.634177E-1,-2.2653782E-1,-5.407026E-1],"categories":[],"categories_nodes":[],"categories_segments":[],"categories_sizes":[],"default_left":[0,0,0,0,0,0,0,0,0,0,0,0,0],"id":30,"left_children":[1,3,5,7,-1,9,11,-1,-1,-1,-1,-1,-1],"loss_changes":[3.908706E2,8.554123E2,8.9550916E2,4.281985E2,0E0,8.5993726E2,5.66799E1,0E0,0E0,0E0,0E0,0E0,0E0],"parents":[2147483647,0,0,1,1,2,2,3,3,5,5,6,6],"right_children":[2,4,6,8,-1,10,12,-1,-1,-1,-1,-1,-1],"split_conditions":[1.9930878E0,1.9663684E0,3.018823E0,1.5496203E0,-9.808771E-1,2.444582E0,3.2371075E0,6.819614E-3,-2.1541548E-1,1.0164075E-1,6.634177E-1,-2.2653782E-1,-5.407026E-1],"split_indices":[1,1,1,1,0,1,1,0,0,0,0,0,0],"split_type":[0,0,0,0,0,0,0,0,0,0,0,0,0],"sum_hessian":[2.095E3,1.932E3,1.63E2,1.924E3,8E0,1.35E2,2.8E1,1.834E3,9E1,9.8E1,3.7E1,1.8E1,1E1],"tree_param":{"num_deleted":"0","num_feature":"2","num_nodes":"13","size_leaf_vector":"1"}},{"base_weights":[1.0589349E-1,-3.7597233E-1,6.2848985E-1,3.386211E-1,-1.4787067E0,1.9798259E0,3.061269E-1,2.6787242E-1,7.4544586E-3,-1.3458216E-1,-7.5157094E-1,7.8753784E-2,2.872302E-1,-3.204955E-1,5.90907E-2],"categories":[],"categories_nodes":[],"categories_segments":[],"categories_sizes":[],"default_left":[0,0,0,0,0,0,0,0,0,0,0,0,0,0,0],"id":31,"left_children":[1,3,5,7,9,11,13,-1,-1,-1,-1,-1,-1,-1,-1],"loss_changes":[5.2654285E2,8.5785205E2,4.3632132E2,4.0827606E2,3.3323865E2,2.0310712E2,8.128016E2,0E0,0E0,0E0,0E0,0E0,0E0,0E0,0E0],"parents":[2147483647,0,0,1,1,2,2,3,3,4,4,5,5,6,6],"right_children":[2,4,6,8,10,12,14,-1,-1,-1,-1,-1,-1,-1,-1],"split_conditions":[-2.485713E-1,-5.4565895E-1,-1.0446578E-1,-1.6375363E0,-2.5444674E-1,-1.9142833E-1,-4.4260073E-2,2.6787242E-1,7.4544586E-3,-1.3458216E-1,-7.5157094E-1,7.8753784E-2,2.872302E-1,-3.204955E-1,5.90907E-2],"split_indices":[1,1,1,1,1,1,1,0,0,0,0,0,0,0,0],"split_type":[0,0,0,0,0,0,0,0,0,0,0,0,0,0,0],"sum_hessian":[2.089E3,1.087E3,1.002E3,6.6E2,4.27E2,1.92E2,8.1E2,6.6E1,5.94E2,4.19E2,8E0,8.3E1,1.09E2,6E1,7.5E2],"tree_param":{"num_deleted":"0","num_feature":"2","num_nodes":"15","size_leaf_vector":"1"}},{"base_weights":[1.9412772E-1,2.919286E0,1.0305661E-1,1.6683176E0,7.144755E0,-5.273968E0,2.2626755E-1,5.797737E-1,-1.14288535E-2,1.1300662E0,2.0957541E-1,-6.6681665E-1,-3.015162E-1,6.9071263E-1,1.2952668E-2],"categories":[],"categories_nodes":[],"categories_segments":[],"categories_sizes":[],"default_left":[0,0,0,0,0,0,0,0,0,0,0,0,0,0,0],"id":32,"left_children":[1,3,5,7,9,11,13,-1,-1,-1,-1,-1,-1,-1,-1],"loss_changes":[5.141829E2,3.422375E2,1.3308475E3,3.9080243E2,2.910642E2,1.21609375E2,1.2678159E3,0E0,0E0,0E0,0E0,0E0,0E0,0E0,0E0],"parents":[2147483647,0,0,1,1,2,2,3,3,4,4,5,5,6,6],"right_children":[2,4,6,8,10,12,14,-1,-1,-1,-1,-1,-1,-1,-1],"split_conditions":[-1.614345E0,-1.6642889E0,-1.5057735E0,-1.8775712E0,-1.6375363E0,-1.5319778E0,-1.4473058E0,5.797737E-1,-1.14288535E-2,1.1300662E0,2.0957541E-1,-6.6681665E-1,-3.015162E-1,6.9071263E-1,1.2952668E-2],"split_indices":[1,1,1,1,1,1,1,0,0,0,0,0,0,0,0],"split_type":[0,0,0,0,0,0,0,0,0,0,0,0,0,0,0],"sum_hessian":[2.072E3,6.6E1,2.006E3,5.2E1,1.4E1,4.4E1,1.962E3,1.5E1,3.7E1,7E0,7E0,2.6E1,1.8E1,2.7E1,1.935E3],"tree_param":{"num_deleted":"0","num_feature":"2","num_nodes":"15","size_leaf_vector":"1"}},{"base_weights":[-2.242555E-1,1.3915819E0,-3.88604E-1,3.7241456E-1,7.9626474E0,-9.407003E-1,3.3286232E-1,6.9828846E-2,-6.2730837E-1,4.9717185E-1,1.2250962E0,-4.7183153E-1,-8.356704E-2,2.9420206E-1,-5.750084E-4],"categories":[],"categories_nodes":[],"categories_segments":[],"categories_sizes":[],"default_left":[0,0,0,0,0,0,0,0,0,0,0,0,0,0,0],"id":33,"left_children":[1,3,5,7,9,11,13,-1,-1,-1,-1,-1,-1,-1,-1],"loss_changes":[5.5795215E2,1.2962556E3,7.595088E2,3.7036584E2,2.7256885E2,4.2456085E2,7.3066583E2,0E0,0E0,0E0,0E0,0E0,0E0,0E0,0E0],"parents":[2147483647,0,0,1,1,2,2,3,3,4,4,5,5,6,6],"right_children":[2,4,6,8,10,12,14,-1,-1,-1,-1,-1,-1,-1,-1],"split_conditions":[-1.592202E0,-1.6721369E0,3.5739574E-1,-1.703931E0,-1.6207561E0,-1.5340377E0,5.837996E-1,6.9828846E-2,-6.2730837E-1,4.9717185E-1,1.2250962E0,-4.7183153E-1,-8.356704E-2,2.9420206E-1,-5.750084E-4],"split_indices":[0,0,0,0,0,0,0,0,0,0,0,0,0,0,0],"split_type":[0,0,0,0,0,0,0,0,0,0,0,0,0,0,0],"sum_hessian":[2.098E3,1.93E2,1.905E3,1.68E2,2.5E1,1.079E3,8.26E2,1.61E2,7E0,1.6E1,9E0,2.8E1,1.051E3,9.4E1,7.32E2],"tree_param":{"num_deleted":"0","num_feature":"2","num_nodes":"15","size_leaf_vector":"1"}},{"base_weights":[3.6546282E-2,1.120096E-1,-3.2846344E0,5.8498997E-2,5.470847E0,-6.297111E-1,-2.0361981E0,2.1742137E-1,-7.8851136E-4,9.3834907E-1,6.1985474E-2,6.1834108E-2,-3.0165657E-1],"categories":[],"categories_nodes":[],"categories_segments":[],"categories_sizes":[],"default_left":[0,0,0,0,0,0,0,0,0,0,0,0,0],"id":34,"left_children":[1,3,5,7,9,-1,11,-1,-1,-1,-1,-1,-1],"loss_changes":[5.1891583E2,5.8007135E2,1.6017853E2,2.8161908E2,3.7378772E2,0E0,9.03477E1,0E0,0E0,0E0,0E0,0E0,0E0],"parents":[2147483647,0,0,1,1,2,2,3,3,4,4,6,6],"right_children":[2,4,6,8,10,-1,12,-1,-1,-1,-1,-1,-1],"split_conditions":[2.6950114E0,2.444582E0,2.8572764E0,-1.6375363E0,2.5383584E0,-6.297111E-1,3.018823E0,2.1742137E-1,-7.8851136E-4,9.3834907E-1,6.1985474E-2,6.1834108E-2,-3.0165657E-1],"split_indices":[1,1,1,1,1,0,1,0,0,0,0,0,0],"split_type":[0,0,0,0,0,0,0,0,0,0,0,0,0],"sum_hessian":[2.068E3,2.023E3,4.5E1,2.004E3,1.9E1,1.2E1,3.3E1,6E1,1.944E3,1E1,9E0,9E0,2.4E1],"tree_param":{"num_deleted":"0","num_feature":"2","num_nodes":"13","size_leaf_vector":"1"}},{"base_weights":[1.6556078E-1,-2.365491E-1,8.832068E-1,-1.03041284E-1,-5.4206896E0,1.7106808E0,-7.335171E-2,2.3309235E-1,-2.3688542E-2,-7.2884154E-1,-3.3555767E-1,1.4488682E-1,7.631743E-1,-2.6625824E-1,2.848807E-2],"categories":[],"categories_nodes":[],"categories_segments":[],"categories_sizes":[],"default_left":[0,0,0,0,0,0,0,0,0,0,0,0,0,0,0],"id":35,"left_children":[1,3,5,7,9,11,13,-1,-1,-1,-1,-1,-1,-1,-1],"loss_changes":[6.099627E2,9.372684E2,6.008948E2,4.312226E2,1.0668341E2,6.1987744E2,3.2818237E2,0E0,0E0,0E0,0E0,0E0,0E0,0E0,0E0],"parents":[2147483647,0,0,1,1,2,2,3,3,4,4,5,5,6,6],"right_children":[2,4,6,8,10,12,14,-1,-1,-1,-1,-1,-1,-1,-1],"split_conditions":[-2.6150107E-2,-6.202176E-2,1.2975291E0,-1.6375363E0,-4.4260073E-2,1.2557119E0,1.4176475E0,2.3309235E-1,-2.3688542E-2,-7.2884154E-1,-3.3555767E-1,1.4488682E-1,7.631743E-1,-2.6625824E-1,2.848807E-2],"split_indices":[1,1,1,1,1,1,1,0,0,0,0,0,0,0,0],"split_type":[0,0,0,0,0,0,0,0,0,0,0,0,0,0,0],"sum_hessian":[2.112E3,1.354E3,7.58E2,1.321E3,3.3E1,4.06E2,3.52E2,6.8E1,1.253E3,1.6E1,1.7E1,3.9E2,1.6E1,4.2E1,3.1E2],"tree_param":{"num_deleted":"0","num_feature":"2","num_nodes":"15","size_leaf_vector":"1"}},{"base_weights":[-3.0621087E-2,1.0032682E-1,-2.0978587E0,-9.830451E-2,4.3882113E0,-4.465407E0,-5.749617E-1,-5.583762E-3,-7.936356E-1,9.138285E-1,3.3376655E-1,-3.7588197E-1,-7.5284904E-1,-7.1154134E-3,-3.545538E-1],"categories":[],"categories_nodes":[],"categories_segments":[],"categories_sizes":[],"default_left":[0,0,0,0,0,0,0,0,0,0,0,0,0,0,0],"id":36,"left_children":[1,3,5,7,9,11,13,-1,-1,-1,-1,-1,-1,-1,-1],"loss_changes":[5.589362E2,1.6544489E3,4.4091296E2,6.1767365E2,3.986543E2,7.558978E1,1.13489235E2,0E0,0E0,0E0,0E0,0E0,0E0,0E0,0E0],"parents":[2147483647,0,0,1,1,2,2,3,3,4,4,5,5,6,6],"right_children":[2,4,6,8,10,12,14,-1,-1,-1,-1,-1,-1,-1,-1],"split_conditions":[1.9222976E0,1.7223438E0,2.1321611E0,1.6999725E0,1.7513428E0,2.0818658E0,3.13133E0,-5.583762E-3,-7.936356E-1,9.138285E-1,3.3376655E-1,-3.7588197E-1,-7.5284904E-1,-7.1154134E-3,-3.545538E-1],"split_indices":[0,0,0,0,0,0,0,0,0,0,0,0,0,0,0],"split_type":[0,0,0,0,0,0,0,0,0,0,0,0,0,0,0],"sum_hessian":[2.063E3,1.941E3,1.22E2,1.856E3,8.5E1,4.7E1,7.5E1,1.847E3,9E0,1.4E1,7.1E1,4E1,7E0,6.5E1,1E1],"tree_param":{"num_deleted":"0","num_feature":"2","num_nodes":"15","size_leaf_vector":"1"}},{"base_weights":[2.7338576E-2,-2.5262502E-1,9.317366E-1,2.8389513E0,-3.4699813E-1,6.7661995E-1,7.0773643E-1,2.7964478E-2,5.497374E-1,-2.6283992E-2,-3.264894E-1,-6.123205E-1,8.2348704E-2],"categories":[],"categories_nodes":[],"categories_segments":[],"categories_sizes":[],"default_left":[0,0,0,0,0,0,0,0,0,0,0,0,0],"id":37,"left_children":[1,3,5,7,9,-1,11,-1,-1,-1,-1,-1,-1],"loss_changes":[5.2486273E2,4.6284375E2,6.3560236E2,3.1823737E2,3.7657504E2,0E0,3.7903674E2,0E0,0E0,0E0,0E0,0E0,0E0],"parents":[2147483647,0,0,1,1,2,2,3,3,4,4,6,6],"right_children":[2,4,6,8,10,-1,12,-1,-1,-1,-1,-1,-1],"split_conditions":[1.0620549E0,-3.167279E0,1.0924196E0,-3.2371993E0,9.872754E-1,6.7661995E-1,1.1132665E0,2.7964478E-2,5.497374E-1,-2.6283992E-2,-3.264894E-1,-6.123205E-1,8.2348704E-2],"split_indices":[0,0,0,0,0,0,0,0,0,0,0,0,0],"split_type":[0,0,0,0,0,0,0,0,0,0,0,0,0],"sum_hessian":[2.071E3,1.582E3,4.89E2,4.6E1,1.536E3,1.7E1,4.72E2,2.4E1,2.2E1,1.494E3,4.2E1,7E0,4.65E2],"tree_param":{"num_deleted":"0","num_feature":"2","num_nodes":"13","size_leaf_vector":"1"}},{"base_weights":[3.953159E-3,-1.120484E0,4.7459412E-2,-4.1076504E-2,3.9266105E0,3.9798836E-4,-1.1350727E0,5.565721E-1,1.5174817E-1],"categories":[],"categories_nodes":[],"categories_segments":[],"categories_sizes":[],"default_left":[0,0,0,0,0,0,0,0,0],"id":38,"left_children":[1,-1,3,5,7,-1,-1,-1,-1],"loss_changes":[1.00899744E3,0E0,7.0799976E2,1.0273423E3,1.7320013E2,0E0,0E0,0E0,0E0],"parents":[2147483647,0,0,2,2,3,3,4,4],"right_children":[2,-1,4,6,8,-1,-1,-1,-1],"split_conditions":[-3.2744136E0,-1.120484E0,2.4411936E0,2.3332317E0,2.9153438E0,3.9798836E-4,-1.1350727E0,5.565721E-1,1.5174817E-1],"split_indices":[0,0,0,0,0,0,0,0,0],"split_type":[0,0,0,0,0,0,0,0,0],"sum_hessian":[2.067E3,7E0,2.06E3,2.015E3,4.5E1,2.008E3,7E0,2.6E1,1.9E1],"tree_param":{"num_deleted":"0","num_feature":"2","num_nodes":"9","size_leaf_vector":"1"}},{"base_weights":[-1.5568066E-1,-4.3155253E-1,1.4194143E0,-2.9627034E-1,-5.2349625E0,3.2802083E0,-5.5230314E-1,-4.821525E-2,1.4158787E-1,-1.3522972E0,-8.76578E-3,2.7363607E-1,7.267473E-1,-1.4916596E-1,1.4780651E-1],"categories":[],"categories_nodes":[],"categories_segments":[],"categories_sizes":[],"default_left":[0,0,0,0,0,0,0,0,0,0,0,0,0,0,0],"id":39,"left_children":[1,3,5,7,9,11,13,-1,-1,-1,-1,-1,-1,-1,-1],"loss_changes":[8.774829E2,1.1148328E3,1.1061685E3,5.3281E2,2.0038773E3,3.162256E2,2.8256894E2,0E0,0E0,0E0,0E0,0E0,0E0,0E0,0E0],"parents":[2147483647,0,0,1,1,2,2,3,3,4,4,5,5,6,6],"right_children":[2,4,6,8,10,12,14,-1,-1,-1,-1,-1,-1,-1,-1],"split_conditions":[1.5559366E0,1.456711E0,1.8695925E0,1.0620549E0,1.5012805E0,1.8277453E0,2.4411936E0,-4.821525E-2,1.4158787E-1,-1.3522972E0,-8.76578E-3,2.7363607E-1,7.267473E-1,-1.4916596E-1,1.4780651E-1],"split_indices":[0,0,0,0,0,0,0,0,0,0,0,0,0,0,0],"split_type":[0,0,0,0,0,0,0,0,0,0,0,0,0,0,0],"sum_hessian":[2.017E3,1.717E3,3E2,1.671E3,4.6E1,1.54E2,1.46E2,1.508E3,1.63E2,1.7E1,2.9E1,1.37E2,1.7E1,1E2,4.6E1],"tree_param":{"num_deleted":"0","num_feature":"2","num_nodes":"15","size_leaf_vector":"1"}},{"base_weights":[-1.6884315E-1,1.4136939E-1,-1.4584956E0,-1.02708675E-1,2.3254576E0,-4.1142287E0,-6.6654056E-1,-2.2840183E-3,-7.933623E-1,5.927261E-1,8.1008606E-2,-2.9254398E-1,-5.492619E-1,5.1556635E-1,-1.2009759E-1],"categories":[],"categories_nodes":[],"categories_segments":[],"categories_sizes":[],"default_left":[0,0,0,0,0,0,0,0,0,0,0,0,0,0,0],"id":40,"left_children":[1,3,5,7,9,11,13,-1,-1,-1,-1,-1,-1,-1,-1],"loss_changes":[8.1914197E2,8.803671E2,8.322365E2,9.2922754E2,9.012382E2,1.3304565E2,9.6145044E2,0E0,0E0,0E0,0E0,0E0,0E0,0E0,0E0],"parents":[2147483647,0,0,1,1,2,2,3,3,4,4,5,5,6,6],"right_children":[2,4,6,8,10,12,14,-1,-1,-1,-1,-1,-1,-1,-1],"split_conditions":[1.1499323E0,4.6197945E-1,1.4176475E0,4.1077402E-1,6.993282E-1,1.2975291E0,1.4987478E0,-2.2840183E-3,-7.933623E-1,5.927261E-1,8.1008606E-2,-2.9254398E-1,-5.492619E-1,5.1556635E-1,-1.2009759E-1],"split_indices":[1,1,1,1,1,1,1,0,0,0,0,0,0,0,0],"split_type":[0,0,0,0,0,0,0,0,0,0,0,0,0,0,0],"sum_hessian":[2.046E3,1.65E3,3.96E2,1.485E3,1.65E2,9E1,3.06E2,1.471E3,1.4E1,4.8E1,1.17E2,5E1,4E1,2.5E1,2.81E2],"tree_param":{"num_deleted":"0","num_feature":"2","num_nodes":"15","size_leaf_vector":"1"}},{"base_weights":[1.3841623E-1,2.0929897E-1,-2.9124868E0,8.616253E-2,2.1766884E0,-7.9995614E-1,-1.3213974E0,1.4078408E-2,-5.981897E-1,8.5465384E-1,-1.6435575E-2,2.4221113E-2,-6.21287E-1],"categories":[],"categories_nodes":[],"categories_segments":[],"categories_sizes":[],"default_left":[0,0,0,0,0,0,0,0,0,0,0,0,0],"id":41,"left_children":[1,3,5,7,9,-1,11,-1,-1,-1,-1,-1,-1],"loss_changes":[4.4761148E2,4.8941455E2,3.69847E2,6.315853E2,1.7759448E3,0E0,2.844937E2,0E0,0E0,0E0,0E0,0E0,0E0],"parents":[2147483647,0,0,1,1,2,2,3,3,4,4,6,6],"right_children":[2,4,6,8,10,-1,12,-1,-1,-1,-1,-1,-1],"split_conditions":[2.3332317E0,1.8025548E0,2.4411936E0,1.7747675E0,1.8695925E0,-7.9995614E-1,3.13133E0,1.4078408E-2,-5.981897E-1,8.5465384E-1,-1.6435575E-2,2.4221113E-2,-6.21287E-1],"split_indices":[0,0,0,0,0,0,0,0,0,0,0,0,0],"split_type":[0,0,0,0,0,0,0,0,0,0,0,0,0],"sum_hessian":[2.066E3,2.02E3,4.6E1,1.902E3,1.18E2,1E1,3.6E1,1.886E3,1.6E1,3.1E1,8.7E1,2.8E1,8E0],"tree_param":{"num_deleted":"0","num_feature":"2","num_nodes":"13","size_leaf_vector":"1"}},{"base_weights":[2.6218256E-4,-1.3010367E0,4.7757572E-1,-7.748117E-1,-4.488546E0,1.3707503E0,3.8993424E-1,-5.553517E-1,-4.4462394E-2,-3.4881064E-1,-7.685141E-1,3.760036E-1,2.959925E-2],"categories":[],"categories_nodes":[],"categories_segments":[],"categories_sizes":[],"default_left":[0,0,0,0,0,0,0,0,0,0,0,0,0],"id":42,"left_children":[1,3,5,7,9,-1,11,-1,-1,-1,-1,-1,-1],"loss_changes":[1.2938091E3,9.3415936E2,1.7617183E3,7.564862E2,2.2583545E2,0E0,4.7852588E2,0E0,0E0,0E0,0E0,0E0,0E0],"parents":[2147483647,0,0,1,1,2,2,3,3,4,4,6,6],"right_children":[2,4,6,8,10,-1,12,-1,-1,-1,-1,-1,-1],"split_conditions":[-7.566103E-1,-8.59873E-1,-7.356742E-1,-1.7544708E0,-7.7678335E-1,1.3707503E0,-6.4010996E-1,-5.553517E-1,-4.4462394E-2,-3.4881064E-1,-7.685141E-1,3.760036E-1,2.959925E-2],"split_indices":[1,1,1,1,1,0,1,0,0,0,0,0,0],"split_type":[0,0,0,0,0,0,0,0,0,0,0,0,0],"sum_hessian":[2.081E3,5.58E2,1.523E3,4.8E2,7.8E1,9E0,1.514E3,3E1,4.5E2,6.1E1,1.7E1,4E1,1.474E3],"tree_param":{"num_deleted":"0","num_feature":"2","num_nodes":"13","size_leaf_vector":"1"}},{"base_weights":[1.227312E-3,-1.5965115E0,2.0504631E-1,-1.1661332E0,-7.8596777E-1,5.115251E0,1.5400977E-1,-1.6441886E-1,1.9482282E-1,1.9402139E-1,7.778763E-1,-5.9283495E-1,2.1424584E-2],"categories":[],"categories_nodes":[],"categories_segments":[],"categories_sizes":[],"default_left":[0,0,0,0,0,0,0,0,0,0,0,0,0],"id":43,"left_children":[1,3,5,7,-1,9,11,-1,-1,-1,-1,-1,-1],"loss_changes":[6.7930664E2,6.269799E2,4.6282196E2,3.3372516E2,0E0,1.4558575E2,6.724735E2,0E0,0E0,0E0,0E0,0E0,0E0],"parents":[2147483647,0,0,1,1,2,2,3,3,5,5,6,6],"right_children":[2,4,6,8,-1,10,12,-1,-1,-1,-1,-1,-1],"split_conditions":[-1.3051133E0,-1.3417106E0,-1.2814332E0,-1.3709743E0,-7.8596777E-1,-1.2961105E0,-1.2481511E0,-1.6441886E-1,1.9482282E-1,1.9402139E-1,7.778763E-1,-5.9283495E-1,2.1424584E-2],"split_indices":[1,1,1,1,0,1,1,0,0,0,0,0,0],"split_type":[0,0,0,0,0,0,0,0,0,0,0,0,0],"sum_hessian":[2.084E3,2.35E2,1.849E3,2.21E2,1.4E1,1.8E1,1.831E3,1.92E2,2.9E1,9E0,9E0,1.7E1,1.814E3],"tree_param":{"num_deleted":"0","num_feature":"2","num_nodes":"13","size_leaf_vector":"1"}},{"base_weights":[3.69956E-1,4.877215E-1,-1.5173752E0,3.883436E-1,3.8504748E0,-4.7702575E0,-2.8030154E-1,5.3526897E-2,-9.495853E-2,5.647082E-1,-1.5627628E-2,-1.5320514E-1,-5.9207493E-1,3.8456604E-1,-1.7994213E-1],"categories":[],"categories_nodes":[],"categories_segments":[],"categories_sizes":[],"default_left":[0,0,0,0,0,0,0,0,0,0,0,0,0,0,0],"id":44,"left_children":[1,3,5,7,9,11,13,-1,-1,-1,-1,-1,-1,-1,-1],"loss_changes":[4.5393338E2,6.4013684E2,4.815495E2,3.6731854E2,3.9680292E2,1.1387152E2,5.584891E2,0E0,0E0,0E0,0E0,0E0,0E0,0E0,0E0],"parents":[2147483647,0,0,1,1,2,2,3,3,4,4,5,5,6,6],"right_children":[2,4,6,8,10,12,14,-1,-1,-1,-1,-1,-1,-1,-1],"split_conditions":[1.9222976E0,1.8025548E0,2.035257E0,1.42106E0,1.8695925E0,1.9360878E0,2.169377E0,5.3526897E-2,-9.495853E-2,5.647082E-1,-1.5627628E-2,-1.5320514E-1,-5.9207493E-1,3.8456604E-1,-1.7994213E-1],"split_indices":[0,0,0,0,0,0,0,0,0,0,0,0,0,0,0],"split_type":[0,0,0,0,0,0,0,0,0,0,0,0,0,0,0],"sum_hessian":[2.038E3,1.919E3,1.19E2,1.865E3,5.4E1,3.2E1,8.7E1,1.681E3,1.84E2,3.7E1,1.7E1,9E0,2.3E1,2.3E1,6.4E1],"tree_param":{"num_deleted":"0","num_feature":"2","num_nodes":"15","size_leaf_vector":"1"}},{"base_weights":[-1.3761888E-1,-1.1191896E-1,-5.41033E-1,-1.7188284E-1,1.9950923E0,-1.40211405E-2,-3.6532307E-1,1.1697414E0,-3.181126E-2],"categories":[],"categories_nodes":[],"categories_segments":[],"categories_sizes":[],"default_left":[0,0,0,0,0,0,0,0,0],"id":45,"left_children":[1,3,-1,5,7,-1,-1,-1,-1],"loss_changes":[2.7935455E2,2.6023367E2,0E0,2.2011667E2,1.282998E3,0E0,0E0,0E0,0E0],"parents":[2147483647,0,0,1,1,3,3,4,4],"right_children":[2,4,-1,6,8,-1,-1,-1,-1],"split_conditions":[3.2371075E0,2.444582E0,-5.41033E-1,2.3557277E0,2.5383584E0,-1.40211405E-2,-3.6532307E-1,1.1697414E0,-3.181126E-2],"split_indices":[1,1,0,1,1,0,0,0,0],"split_type":[0,0,0,0,0,0,0,0,0],"sum_hessian":[2.065E3,2.056E3,9E0,2E3,5.6E1,1.983E3,1.7E1,1E1,4.6E1],"tree_param":{"num_deleted":"0","num_feature":"2","num_nodes":"9","size_leaf_vector":"1"}},{"base_weights":[2.8455723E-2,1.585008E-1,-1.9715955E0,4.5514023E-3,3.23744E0,-5.8916698E0,-9.041342E-1,1.9103223E-2,-2.2891954E-1,9.037432E-1,1.6261256E-1,-7.0131487E-1,-3.6228684E-1,5.0898235E-2,-2.1935414E-1],"categories":[],"categories_nodes":[],"categories_segments":[],"categories_sizes":[],"default_left":[0,0,0,0,0,0,0,0,0,0,0,0,0,0,0],"id":46,"left_children":[1,3,5,7,9,11,13,-1,-1,-1,-1,-1,-1,-1,-1],"loss_changes":[5.4105383E2,9.257089E2,5.2610815E2,7.96461E2,8.544457E2,4.3291443E1,1.8514682E2,0E0,0E0,0E0,0E0,0E0,0E0,0E0,0E0],"parents":[2147483647,0,0,1,1,2,2,3,3,4,4,5,5,6,6],"right_children":[2,4,6,8,10,12,14,-1,-1,-1,-1,-1,-1,-1,-1],"split_conditions":[1.9222976E0,1.7223438E0,1.986241E0,1.42106E0,1.7513428E0,1.9572505E0,2.3332317E0,1.9103223E-2,-2.2891954E-1,9.037432E-1,1.6261256E-1,-7.0131487E-1,-3.6228684E-1,5.0898235E-2,-2.1935414E-1],"split_indices":[0,0,0,0,0,0,0,0,0,0,0,0,0,0,0],"split_type":[0,0,0,0,0,0,0,0,0,0,0,0,0,0,0],"sum_hessian":[2.078E3,1.952E3,1.26E2,1.86E3,9.2E1,2.6E1,1E2,1.721E3,1.39E2,1.9E1,7.3E1,1.6E1,1E1,4.8E1,5.2E1],"tree_param":{"num_deleted":"0","num_feature":"2","num_nodes":"15","size_leaf_vector":"1"}},{"base_weights":[3.4506652E-1,3.4955423E0,2.797786E-1,-5.257517E-2,4.6081905E0,-3.6294648E-1,3.1651935E-1,3.1534675E-1,5.5141205E-1,1.0952754E-1,1.827696E-2],"categories":[],"categories_nodes":[],"categories_segments":[],"categories_sizes":[],"default_left":[0,0,0,0,0,0,0,0,0,0,0],"id":47,"left_children":[1,3,5,-1,7,-1,9,-1,-1,-1,-1],"loss_changes":[4.2541327E2,1.9034277E2,2.930019E2,0E0,2.6101318E1,0E0,2.0957487E2,0E0,0E0,0E0,0E0],"parents":[2147483647,0,0,1,1,2,2,4,4,6,6],"right_children":[2,4,6,-1,8,-1,10,-1,-1,-1,-1],"split_conditions":[-3.1854203E0,-3.2744136E0,-3.141777E0,-5.257517E-2,-3.2371993E0,-3.6294648E-1,-1.1941541E0,3.1534675E-1,5.5141205E-1,1.0952754E-1,1.827696E-2],"split_indices":[0,0,0,0,0,0,0,0,0,0,0],"split_type":[0,0,0,0,0,0,0,0,0,0,0],"sum_hessian":[2.072E3,4.1E1,2.031E3,9E0,3.2E1,1.8E1,2.013E3,1.4E1,1.8E1,2.94E2,1.719E3],"tree_param":{"num_deleted":"0","num_feature":"2","num_nodes":"11","size_leaf_vector":"1"}},{"base_weights":[1.3198171E-2,-3.908219E-1,6.753255E-1,-2.5616887E-1,-2.7142458E0,4.6677895E0,4.3988663E-1,2.5199533E-1,-3.614639E-2,-3.7094608E-1,-1.4558327E-1,3.8006458E-1,8.0948555E-1,-6.1503595E-1,5.921299E-2],"categories":[],"categories_nodes":[],"categories_segments":[],"categories_sizes":[],"default_left":[0,0,0,0,0,0,0,0,0,0,0,0,0,0,0],"id":48,"left_children":[1,3,5,7,9,11,13,-1,-1,-1,-1,-1,-1,-1,-1],"loss_changes":[5.59098E2,4.0539185E2,7.4241187E2,3.5986987E2,8.351947E1,9.99917E1,7.551287E2,0E0,0E0,0E0,0E0,0E0,0E0,0E0,0E0],"parents":[2147483647,0,0,1,1,2,2,3,3,4,4,5,5,6,6],"right_children":[2,4,6,8,10,12,14,-1,-1,-1,-1,-1,-1,-1,-1],"split_conditions":[4.5507368E-1,3.3516347E-1,5.662066E-1,-3.1854203E0,3.9023522E-1,5.4415953E-1,5.9292936E-1,2.5199533E-1,-3.614639E-2,-3.7094608E-1,-1.4558327E-1,3.8006458E-1,8.0948555E-1,-6.1503595E-1,5.921299E-2],"split_indices":[0,0,0,0,0,0,0,0,0,0,0,0,0,0,0],"split_type":[0,0,0,0,0,0,0,0,0,0,0,0,0,0,0],"sum_hessian":[2.088E3,1.297E3,7.91E2,1.227E3,7E1,4.3E1,7.48E2,4.4E1,1.183E3,3.8E1,3.2E1,3.6E1,7E0,1.6E1,7.32E2],"tree_param":{"num_deleted":"0","num_feature":"2","num_nodes":"15","size_leaf_vector":"1"}},{"base_weights":[1.417021E-2,-6.992607E-2,3.903301E0,-1.7725918E-2,-1.3293923E0,6.249288E0,-3.702777E-1,-7.392829E-3,4.3126997E-1,4.3962246E-1,7.652221E-1],"categories":[],"categories_nodes":[],"categories_segments":[],"categories_sizes":[],"default_left":[0,0,0,0,0,0,0,0,0,0,0],"id":49,"left_children":[1,3,5,7,-1,9,-1,-1,-1,-1,-1],"loss_changes":[6.7990656E2,1.4045139E3,8.082652E2,4.9389383E2,0E0,5.4749756E1,0E0,0E0,0E0,0E0,0E0],"parents":[2147483647,0,0,1,1,2,2,3,3,5,5],"right_children":[2,4,6,8,-1,10,-1,-1,-1,-1,-1],"split_conditions":[2.4411936E0,2.3332317E0,3.13133E0,2.1321611E0,-1.3293923E0,2.685589E0,-3.702777E-1,-7.392829E-3,4.3126997E-1,4.3962246E-1,7.652221E-1],"split_indices":[0,0,0,0,0,0,0,0,0,0,0],"split_type":[0,0,0,0,0,0,0,0,0,0,0],"sum_hessian":[2.077E3,2.034E3,4.3E1,2.027E3,7E0,3.3E1,1E1,2.002E3,2.5E1,1.6E1,1.7E1],"tree_param":{"num_deleted":"0","num_feature":"2","num_nodes":"11","size_leaf_vector":"1"}},{"base_weights":[1.2475238E-2,9.6993566E-2,-4.174578E0,3.7155103E-2,4.3762536E0,-5.926634E0,-1.8339547E0,1.8320255E-2,-8.817512E-2,6.501196E-1,3.2012174E-1,-7.669981E-1,-4.4855163E-1,6.411489E-2,-4.1256627E-1],"categories":[],"categories_nodes":[],"categories_segments":[],"categories_sizes":[],"default_left":[0,0,0,0,0,0,0,0,0,0,0,0,0,0,0],"id":50,"left_children":[1,3,5,7,9,11,13,-1,-1,-1,-1,-1,-1,-1,-1],"loss_changes":[7.332961E2,5.199041E2,1.5726776E2,2.6910617E2,4.9101074E1,2.3380737E1,1.1041725E2,0E0,0E0,0E0,0E0,0E0,0E0,0E0,0E0],"parents":[2147483647,0,0,1,1,2,2,3,3,4,4,5,5,6,6],"right_children":[2,4,6,8,10,12,14,-1,-1,-1,-1,-1,-1,-1,-1],"split_conditions":[2.7636616E0,2.444582E0,3.1098585E0,1.322976E0,2.5383584E0,2.8572764E0,3.2371075E0,1.8320255E-2,-8.817512E-2,6.501196E-1,3.2012174E-1,-7.669981E-1,-4.4855163E-1,6.411489E-2,-4.1256627E-1],"split_indices":[1,1,1,1,1,1,1,0,0,0,0,0,0,0,0],"split_type":[0,0,0,0,0,0,0,0,0,0,0,0,0,0,0],"sum_hessian":[2.07E3,2.03E3,4E1,2.003E3,2.7E1,2.2E1,1.8E1,1.729E3,2.74E2,8E0,1.9E1,8E0,1.4E1,9E0,9E0],"tree_param":{"num_deleted":"0","num_feature":"2","num_nodes":"15","size_leaf_vector":"1"}},{"base_weights":[1.5708623E-2,1.2795281E-1,-1.6663357E0,3.8715847E-2,1.0183206E0,-7.383112E-1,-1.1238914E0,1.4505147E-2,-1.569154E-1,-2.2852854E-1,-1.8840225E-2],"categories":[],"categories_nodes":[],"categories_segments":[],"categories_sizes":[],"default_left":[0,0,0,0,0,0,0,0,0,0,0],"id":51,"left_children":[1,3,5,7,-1,-1,9,-1,-1,-1,-1],"loss_changes":[3.8932935E2,1.7340869E3,3.9173538E2,3.2798444E2,0E0,0E0,1.2885957E2,0E0,0E0,0E0,0E0],"parents":[2147483647,0,0,1,1,2,2,3,3,6,6],"right_children":[2,4,6,8,-1,-1,10,-1,-1,-1,-1],"split_conditions":[2.0815828E0,2.0364046E0,2.1189039E0,1.5496203E0,1.0183206E0,-7.383112E-1,2.444582E0,1.4505147E-2,-1.569154E-1,-2.2852854E-1,-1.8840225E-2],"split_indices":[1,1,1,1,0,0,1,0,0,0,0],"split_type":[0,0,0,0,0,0,0,0,0,0,0],"sum_hessian":[2.06E3,1.932E3,1.28E2,1.916E3,1.6E1,1E1,1.18E2,1.798E3,1.18E2,5.2E1,6.6E1],"tree_param":{"num_deleted":"0","num_feature":"2","num_nodes":"11","size_leaf_vector":"1"}},{"base_weights":[9.6843936E-2,4.916007E0,4.7788598E-2,7.217302E-1,3.7457713E-1,-9.0084964E-1,9.62418E-2,2.748522E-2,-1.0657287E-1],"categories":[],"categories_nodes":[],"categories_segments":[],"categories_sizes":[],"default_left":[0,0,0,0,0,0,0,0,0],"id":52,"left_children":[1,3,5,-1,-1,-1,7,-1,-1],"loss_changes":[4.9267096E2,2.9519867E1,9.0700146E2,0E0,0E0,0E0,4.2678763E2,0E0,0E0],"parents":[2147483647,0,0,1,1,2,2,6,6],"right_children":[2,4,6,-1,-1,-1,8,-1,-1],"split_conditions":[-1.8283327E0,-1.9730474E0,-1.7544708E0,7.217302E-1,3.7457713E-1,-9.0084964E-1,1.5496203E0,2.748522E-2,-1.0657287E-1],"split_indices":[1,1,1,0,0,0,1,0,0],"split_type":[0,0,0,0,0,0,0,0,0],"sum_hessian":[2.084E3,2E1,2.064E3,5E0,1.5E1,1E1,2.054E3,1.781E3,2.73E2],"tree_param":{"num_deleted":"0","num_feature":"2","num_nodes":"9","size_leaf_vector":"1"}},{"base_weights":[2.7406085E-2,3.9941049E0,-5.564915E-2,2.1244023E0,6.472892E-1,-2.0508036E-1,8.43168E-1,3.5982123E-1,-5.935148E-2,-6.6847764E-3,-3.6477152E-1,9.552436E-1,1.7013578E-2],"categories":[],"categories_nodes":[],"categories_segments":[],"categories_sizes":[],"default_left":[0,0,0,0,0,0,0,0,0,0,0,0,0],"id":53,"left_children":[1,3,5,7,-1,9,11,-1,-1,-1,-1,-1,-1],"loss_changes":[6.907602E2,1.855365E2,2.760484E2,1.06283615E2,0E0,8.382644E2,1.7158289E3,0E0,0E0,0E0,0E0,0E0,0E0],"parents":[2147483647,0,0,1,1,2,2,3,3,5,5,6,6],"right_children":[2,4,6,8,-1,10,12,-1,-1,-1,-1,-1,-1],"split_conditions":[-3.1854203E0,-3.2371993E0,1.5559366E0,-3.2423737E0,6.472892E-1,1.42106E0,1.5899119E0,3.5982123E-1,-5.935148E-2,-6.6847764E-3,-3.6477152E-1,9.552436E-1,1.7013578E-2],"split_indices":[0,0,0,0,0,0,0,0,0,0,0,0,0],"split_type":[0,0,0,0,0,0,0,0,0,0,0,0,0],"sum_hessian":[2.095E3,4.2E1,2.053E3,2.5E1,1.7E1,1.761E3,2.92E2,1.6E1,9E0,1.694E3,6.7E1,2E1,2.72E2],"tree_param":{"num_deleted":"0","num_feature":"2","num_nodes":"13","size_leaf_vector":"1"}},{"base_weights":[6.38632E-2,-3.1658715E-1,3.6915237E-1,9.2715114E-2,-1.8323007E0,6.858302E-1,-2.7760464E-1,-1.6729781E-2,3.4367925E-1,-3.547484E-1,-5.373631E-2,4.3690454E-2,5.273809E-1,-4.4983217E-1,7.340803E-2],"categories":[],"categories_nodes":[],"categories_segments":[],"categories_sizes":[],"default_left":[0,0,0,0,0,0,0,0,0,0,0,0,0,0,0],"id":54,"left_children":[1,3,5,7,9,11,13,-1,-1,-1,-1,-1,-1,-1,-1],"loss_changes":[2.4286487E2,5.777483E2,2.3777414E2,6.3879047E2,4.3786267E2,8.8736505E2,1.6344557E3,0E0,0E0,0E0,0E0,0E0,0E0,0E0,0E0],"parents":[2147483647,0,0,1,1,2,2,3,3,4,4,5,5,6,6],"right_children":[2,4,6,8,10,12,14,-1,-1,-1,-1,-1,-1,-1,-1],"split_conditions":[-2.4615942E-1,-6.211954E-1,1.40707E0,-7.1998847E-1,-5.217817E-1,1.3157382E0,1.5559366E0,-1.6729781E-2,3.4367925E-1,-3.547484E-1,-5.373631E-2,4.3690454E-2,5.273809E-1,-4.4983217E-1,7.340803E-2],"split_indices":[0,0,0,0,0,0,0,0,0,0,0,0,0,0,0],"split_type":[0,0,0,0,0,0,0,0,0,0,0,0,0,0,0],"sum_hessian":[2.089E3,9.3E2,1.159E3,7.33E2,1.97E2,7.78E2,3.81E2,6.81E2,5.2E1,8.4E1,1.13E2,7.39E2,3.9E1,7.3E1,3.08E2],"tree_param":{"num_deleted":"0","num_feature":"2","num_nodes":"15","size_leaf_vector":"1"}},{"base_weights":[-2.162054E-1,-4.6994105E-1,5.6265265E-1,-3.9743307E-1,-5.9497995E0,2.7850468E0,1.5308532E-2,-4.70055E-2,2.884798E-1,-7.8916854E-1,-3.2187447E-1,1.3910924E-1,5.4090446E-1,-7.335701E-1,2.0184351E-2],"categories":[],"categories_nodes":[],"categories_segments":[],"categories_sizes":[],"default_left":[0,0,0,0,0,0,0,0,0,0,0,0,0,0,0],"id":55,"left_children":[1,3,5,7,9,11,13,-1,-1,-1,-1,-1,-1,-1,-1],"loss_changes":[4.028246E2,6.083368E2,6.0938086E2,3.6318945E2,8.0666565E1,3.5459113E2,5.540825E2,0E0,0E0,0E0,0E0,0E0,0E0,0E0,0E0],"parents":[2147483647,0,0,1,1,2,2,3,3,4,4,5,5,6,6],"right_children":[2,4,6,8,10,12,14,-1,-1,-1,-1,-1,-1,-1,-1],"split_conditions":[8.550969E-1,7.702322E-1,1.1499323E0,5.5921984E-1,8.2138836E-1,1.0668417E0,1.1672648E0,-4.70055E-2,2.884798E-1,-7.8916854E-1,-3.2187447E-1,1.3910924E-1,5.4090446E-1,-7.335701E-1,2.0184351E-2],"split_indices":[1,1,1,1,1,1,1,0,0,0,0,0,0,0,0],"split_type":[0,0,0,0,0,0,0,0,0,0,0,0,0,0,0],"sum_hessian":[2.036E3,1.536E3,5E2,1.517E3,1.9E1,9.8E1,4.02E2,1.485E3,3.2E1,1E1,9E0,6.5E1,3.3E1,9E0,3.93E2],"tree_param":{"num_deleted":"0","num_feature":"2","num_nodes":"15","size_leaf_vector":"1"}},{"base_weights":[1.0043525E-1,1.7640446E-1,-3.2163181E0,-6.9974536E-1,2.1222137E-1,-1.6443279E0,-4.168157E0,4.1871497E-1,1.8206201E-2,-4.127708E-1,1.0034851E-1,-5.4046744E-1,-3.4033167E-1],"categories":[],"categories_nodes":[],"categories_segments":[],"categories_sizes":[],"default_left":[0,0,0,0,0,0,0,0,0,0,0,0,0],"id":56,"left_children":[1,3,5,-1,7,9,11,-1,-1,-1,-1,-1,-1],"loss_changes":[5.176122E2,5.171743E2,6.1975098E1,0E0,2.387604E2,1.2907709E2,8.086853E0,0E0,0E0,0E0,0E0,0E0,0E0],"parents":[2147483647,0,0,1,1,2,2,4,4,5,5,6,6],"right_children":[2,4,6,-1,8,10,12,-1,-1,-1,-1,-1,-1],"split_conditions":[2.7636616E0,-1.9730474E0,3.018823E0,-6.9974536E-1,-1.8283327E0,2.8572764E0,3.1098585E0,4.1871497E-1,1.8206201E-2,-4.127708E-1,1.0034851E-1,-5.4046744E-1,-3.4033167E-1],"split_indices":[1,1,1,0,1,1,1,0,0,0,0,0,0],"split_type":[0,0,0,0,0,0,0,0,0,0,0,0,0],"sum_hessian":[2.051E3,2.006E3,4.5E1,9E0,1.997E3,1.8E1,2.7E1,1.4E1,1.983E3,9E0,9E0,8E0,1.9E1],"tree_param":{"num_deleted":"0","num_feature":"2","num_nodes":"13","size_leaf_vector":"1"}},{"base_weights":[4.2633668E-2,-3.3729903E-2,2.3548784E0,1.3955858E-2,-5.2825886E-1,5.4006724E0,2.4009523E-1,1.1117751E-2,-1.17418565E-1,6.5615934E-1,4.3318018E-1,-1.21866204E-1,2.2853939E-1],"categories":[],"categories_nodes":[],"categories_segments":[],"categories_sizes":[],"default_left":[0,0,0,0,0,0,0,0,0,0,0,0,0],"id":57,"left_children":[1,3,5,7,-1,9,11,-1,-1,-1,-1,-1,-1],"loss_changes":[3.645225E2,5.004151E2,4.2382214E2,2.2907744E2,0E0,5.080139E0,1.2212891E2,0E0,0E0,0E0,0E0,0E0,0E0],"parents":[2147483647,0,0,1,1,2,2,3,3,5,5,6,6],"right_children":[2,4,6,8,-1,10,12,-1,-1,-1,-1,-1,-1],"split_conditions":[2.444582E0,2.3557277E0,2.7636616E0,1.7187315E0,-5.2825886E-1,2.5383584E0,3.1098585E0,1.1117751E-2,-1.17418565E-1,6.5615934E-1,4.3318018E-1,-1.21866204E-1,2.2853939E-1],"split_indices":[1,1,1,1,0,1,1,0,0,0,0,0,0],"split_type":[0,0,0,0,0,0,0,0,0,0,0,0,0],"sum_hessian":[2.063E3,1.998E3,6.5E1,1.981E3,1.7E1,2.6E1,3.9E1,1.832E3,1.49E2,1E1,1.6E1,2.3E1,1.6E1],"tree_param":{"num_deleted":"0","num_feature":"2","num_nodes":"13","size_leaf_vector":"1"}},{"base_weights":[-1.8488106E-1,-2.3220313E0,-1.0008299E-1,-8.9095217E-1,-8.800468E-1,-2.5220963E-1,8.1792414E-1,-3.9288482E-1,7.546889E-2,-1.4266248E-2,-3.0314517E-1,1.0668491E0,2.5936618E-2],"categories":[],"categories_nodes":[],"categories_segments":[],"categories_sizes":[],"default_left":[0,0,0,0,0,0,0,0,0,0,0,0,0],"id":58,"left_children":[1,3,5,7,-1,9,11,-1,-1,-1,-1,-1,-1],"loss_changes":[3.7037524E2,7.153092E2,2.750441E2,3.279187E2,0E0,5.1379724E2,1.5378243E3,0E0,0E0,0E0,0E0,0E0,0E0],"parents":[2147483647,0,0,1,1,2,2,3,3,5,5,6,6],"right_children":[2,4,6,8,-1,10,12,-1,-1,-1,-1,-1,-1],"split_conditions":[-3.053359E0,-3.1151304E0,1.5673796E0,-3.2371993E0,-8.800468E-1,1.42106E0,1.5899119E0,-3.9288482E-1,7.546889E-2,-1.4266248E-2,-3.0314517E-1,1.0668491E0,2.5936618E-2],"split_indices":[0,0,0,0,0,0,0,0,0,0,0,0,0],"split_type":[0,0,0,0,0,0,0,0,0,0,0,0,0],"sum_hessian":[2.044E3,7.7E1,1.967E3,6.4E1,1.3E1,1.688E3,2.79E2,2.2E1,4.2E1,1.625E3,6.3E1,1.4E1,2.65E2],"tree_param":{"num_deleted":"0","num_feature":"2","num_nodes":"13","size_leaf_vector":"1"}},{"base_weights":[-1.2452468E-1,4.1056294E0,-2.0752992E-1,8.4070885E-1,2.938439E0,-5.784174E-1,3.9968902E-1,9.838873E-2,4.5125714E-1,-4.1245755E-2,-1.9307676E-1,1.1893195E0,2.6394887E-2],"categories":[],"categories_nodes":[],"categories_segments":[],"categories_sizes":[],"default_left":[0,0,0,0,0,0,0,0,0,0,0,0,0],"id":59,"left_children":[1,3,5,-1,7,9,11,-1,-1,-1,-1,-1,-1],"loss_changes":[7.297874E2,1.7612122E2,4.5898386E2,0E0,9.709198E1,2.83115E2,1.2028417E3,0E0,0E0,0E0,0E0,0E0,0E0],"parents":[2147483647,0,0,1,1,2,2,4,4,5,5,6,6],"right_children":[2,4,6,-1,8,10,12,-1,-1,-1,-1,-1,-1],"split_conditions":[-3.1854203E0,-3.2744136E0,4.5507368E-1,8.4070885E-1,-3.2371993E0,2.671995E-1,4.7268048E-1,9.838873E-2,4.5125714E-1,-4.1245755E-2,-1.9307676E-1,1.1893195E0,2.6394887E-2],"split_indices":[0,0,0,0,0,0,0,0,0,0,0,0,0],"split_type":[0,0,0,0,0,0,0,0,0,0,0,0,0],"sum_hessian":[2.075E3,3.9E1,2.036E3,7E0,3.2E1,1.264E3,7.72E2,1.5E1,1.7E1,1.127E3,1.37E2,8E0,7.64E2],"tree_param":{"num_deleted":"0","num_feature":"2","num_nodes":"13","size_leaf_vector":"1"}},{"base_weights":[4.9397413E-2,-1.6751064E-1,7.4609923E-1,-6.3228264E-2,-2.8025956E0,5.7883782E0,3.8819495E-1,-1.3263322E-2,1.0589814E0,-2.1297348E-1,-6.4536E-1,4.4903404E-1,8.3248323E-1,-6.9082016E-1,5.3041577E-2],"categories":[],"categories_nodes":[],"categories_segments":[],"categories_sizes":[],"default_left":[0,0,0,0,0,0,0,0,0,0,0,0,0,0,0],"id":60,"left_children":[1,3,5,7,9,11,13,-1,-1,-1,-1,-1,-1,-1,-1],"loss_changes":[3.176286E2,4.4031586E2,8.98275E2,1.1422585E3,1.3610922E2,7.126831E1,4.8826996E2,0E0,0E0,0E0,0E0,0E0,0E0,0E0,0E0],"parents":[2147483647,0,0,1,1,2,2,3,3,4,4,5,5,6,6],"right_children":[2,4,6,8,10,12,14,-1,-1,-1,-1,-1,-1,-1,-1],"split_conditions":[1.0620549E0,9.313048E-1,1.1292186E0,9.049897E-1,1.0495584E0,1.1132665E0,1.1433097E0,-1.3263322E-2,1.0589814E0,-2.1297348E-1,-6.4536E-1,4.4903404E-1,8.3248323E-1,-6.9082016E-1,5.3041577E-2],"split_indices":[0,0,0,0,0,0,0,0,0,0,0,0,0,0,0],"split_type":[0,0,0,0,0,0,0,0,0,0,0,0,0,0,0],"sum_hessian":[2.1E3,1.602E3,4.98E2,1.542E3,6E1,3.2E1,4.66E2,1.533E3,9E0,5.2E1,8E0,2.3E1,9E0,8E0,4.58E2],"tree_param":{"num_deleted":"0","num_feature":"2","num_nodes":"15","size_leaf_vector":"1"}},{"base_weights":[2.851886E-2,-4.991866E-1,6.997562E-2,-2.0595884E-1,7.11778E-1,-1.1581867E-2,-3.528609E-1,1.0713702E0,5.2995052E-2],"categories":[],"categories_nodes":[],"categories_segments":[],"categories_sizes":[],"default_left":[0,0,0,0,0,0,0,0,0],"id":61,"left_children":[1,-1,3,5,7,-1,-1,-1,-1],"loss_changes":[4.3200873E2,0E0,3.6460892E2,4.3087744E2,1.120051E3,0E0,0E0,0E0,0E0],"parents":[2147483647,0,0,2,2,3,3,4,4],"right_children":[2,-1,4,6,8,-1,-1,-1,-1],"split_conditions":[-3.2423737E0,-4.991866E-1,7.9182494E-1,7.073247E-1,8.194671E-1,-1.1581867E-2,-3.528609E-1,1.0713702E0,5.2995052E-2],"split_indices":[0,0,0,0,0,0,0,0,0],"split_type":[0,0,0,0,0,0,0,0,0],"sum_hessian":[2.073E3,1.6E1,2.057E3,1.439E3,6.18E2,1.402E3,3.7E1,1E1,6.08E2],"tree_param":{"num_deleted":"0","num_feature":"2","num_nodes":"9","size_leaf_vector":"1"}},{"base_weights":[3.8839526E-2,1.6647054E-1,-2.1600814E0,9.769576E-2,2.715872E0,-6.430175E-1,-1.0808101E0,2.4109641E-2,-1.4276044E-1,3.6450675E-1,7.582212E-2,5.813948E-2,-1.9212899E-1],"categories":[],"categories_nodes":[],"categories_segments":[],"categories_sizes":[],"default_left":[0,0,0,0,0,0,0,0,0,0,0,0,0],"id":62,"left_children":[1,3,5,7,9,-1,11,-1,-1,-1,-1,-1,-1],"loss_changes":[5.883224E2,3.4707242E2,5.2303796E2,4.2249124E2,9.1826294E1,0E0,1.3104263E2,0E0,0E0,0E0,0E0,0E0,0E0],"parents":[2147483647,0,0,1,1,2,2,3,3,4,4,6,6],"right_children":[2,4,6,8,10,-1,12,-1,-1,-1,-1,-1,-1],"split_conditions":[1.9222976E0,1.8025548E0,1.986241E0,1.456711E0,1.8695925E0,-6.430175E-1,2.169377E0,2.4109641E-2,-1.4276044E-1,3.6450675E-1,7.582212E-2,5.813948E-2,-1.9212899E-1],"split_indices":[0,0,0,0,0,0,0,0,0,0,0,0,0],"split_type":[0,0,0,0,0,0,0,0,0,0,0,0,0],"sum_hessian":[2.094E3,1.98E3,1.14E2,1.929E3,5.1E1,2.2E1,9.2E1,1.764E3,1.65E2,3.4E1,1.7E1,3.1E1,6.1E1],"tree_param":{"num_deleted":"0","num_feature":"2","num_nodes":"13","size_leaf_vector":"1"}},{"base_weights":[-1.3388313E-1,2.1161969E0,-3.5414967E-1,1.4466281E0,8.21074E-1,-7.3909146E-1,8.349188E-1,2.7515268E-1,5.6667913E-2,-5.4417425E-1,-6.5091364E-2,3.8839716E-1,2.9609337E-2],"categories":[],"categories_nodes":[],"categories_segments":[],"categories_sizes":[],"default_left":[0,0,0,0,0,0,0,0,0,0,0,0,0],"id":63,"left_children":[1,3,5,7,-1,9,11,-1,-1,-1,-1,-1,-1],"loss_changes":[1.0227123E3,7.389737E2,8.6067694E2,1.9019757E2,0E0,5.852884E2,7.5458716E2,0E0,0E0,0E0,0E0,0E0,0E0],"parents":[2147483647,0,0,1,1,2,2,3,3,5,5,6,6],"right_children":[2,4,6,8,-1,10,12,-1,-1,-1,-1,-1,-1],"split_conditions":[-1.592202E0,-1.6486455E0,1.1433097E0,-3.1151304E0,8.21074E-1,-1.5340377E0,1.3546677E0,2.7515268E-1,5.6667913E-2,-5.4417425E-1,-6.5091364E-2,3.8839716E-1,2.9609337E-2],"split_indices":[0,0,0,0,0,0,0,0,0,0,0,0,0],"split_type":[0,0,0,0,0,0,0,0,0,0,0,0,0],"sum_hessian":[2.061E3,1.83E2,1.878E3,1.66E2,1.7E1,1.419E3,4.59E2,6.6E1,1E2,2.5E1,1.394E3,6.8E1,3.91E2],"tree_param":{"num_deleted":"0","num_feature":"2","num_nodes":"13","size_leaf_vector":"1"}},{"base_weights":[-1.3443203E-1,-6.8393594E-1,2.2744751E-1,-3.7809652E-1,-2.9833508E0,6.198084E-1,1.2978207E-1,-5.6788146E-2,8.6302626E-1,-2.0874165E-1,-4.2392698E-1,-2.6455557E-1,2.2327594E-2],"categories":[],"categories_nodes":[],"categories_segments":[],"categories_sizes":[],"default_left":[0,0,0,0,0,0,0,0,0,0,0,0,0],"id":64,"left_children":[1,3,5,7,9,-1,11,-1,-1,-1,-1,-1,-1],"loss_changes":[4.10193E2,5.748351E2,7.2460284E2,1.2426879E3,9.917212E1,0E0,3.1845007E2,0E0,0E0,0E0,0E0,0E0,0E0],"parents":[2147483647,0,0,1,1,2,2,3,3,4,4,6,6],"right_children":[2,4,6,8,10,-1,12,-1,-1,-1,-1,-1,-1],"split_conditions":[-4.9713108E-1,-6.211954E-1,-4.7162437E-1,-6.4972013E-1,-5.533672E-1,6.198084E-1,-3.924223E-1,-5.6788146E-2,8.6302626E-1,-2.0874165E-1,-4.2392698E-1,-2.6455557E-1,2.2327594E-2],"split_indices":[0,0,0,0,0,0,0,0,0,0,0,0,0],"split_type":[0,0,0,0,0,0,0,0,0,0,0,0,0],"sum_hessian":[2.061E3,8.18E2,1.243E3,7.23E2,9.5E1,1.9E1,1.224E3,7.09E2,1.4E1,5.7E1,3.8E1,3.9E1,1.185E3],"tree_param":{"num_deleted":"0","num_feature":"2","num_nodes":"13","size_leaf_vector":"1"}},{"base_weights":[-4.568139E-2,-1.3729795E0,1.3523974E-1,-7.40244E-1,-3.5404384E0,5.766003E0,2.8449774E-2,-1.8265946E-1,7.041031E-2,-5.484524E-1,-9.103917E-2,7.1390426E-1,3.775144E-1,-5.5739826E-1,1.075641E-2],"categories":[],"categories_nodes":[],"categories_segments":[],"categories_sizes":[],"default_left":[0,0,0,0,0,0,0,0,0,0,0,0,0,0,0],"id":65,"left_children":[1,3,5,7,9,11,13,-1,-1,-1,-1,-1,-1,-1,-1],"loss_changes":[4.9846844E2,3.3886484E2,1.0984276E3,3.0568515E2,2.813369E2,6.598901E1,7.95759E2,0E0,0E0,0E0,0E0,0E0,0E0,0E0,0E0],"parents":[2147483647,0,0,1,1,2,2,3,3,4,4,5,5,6,6],"right_children":[2,4,6,8,10,12,14,-1,-1,-1,-1,-1,-1,-1,-1],"split_conditions":[-1.2481511E0,-1.3517945E0,-1.2058679E0,-1.5057735E0,-1.2961105E0,-1.2221289E0,-1.1697525E0,-1.8265946E-1,7.041031E-2,-5.484524E-1,-9.103917E-2,7.1390426E-1,3.775144E-1,-5.5739826E-1,1.075641E-2],"split_indices":[1,1,1,1,1,1,1,0,0,0,0,0,0,0,0],"split_type":[0,0,0,0,0,0,0,0,0,0,0,0,0,0,0],"sum_hessian":[2.074E3,2.48E2,1.826E3,1.93E2,5.5E1,3.3E1,1.793E3,1.1E2,8.3E1,3.1E1,2.4E1,1.8E1,1.5E1,2.4E1,1.769E3],"tree_param":{"num_deleted":"0","num_feature":"2","num_nodes":"15","size_leaf_vector":"1"}},{"base_weights":[-1.3505736E-1,-1.9791646E0,-3.0273853E-2,4.394989E-1,-5.1472044E0,-9.7127475E-2,1.98312E0,-2.1565008E-1,3.0221805E-1,-5.4058033E-1,-3.598089E-1,-1.9660462E-3,-1.4277668E-1,1.1010118E0,3.0579094E-2],"categories":[],"categories_nodes":[],"categories_segments":[],"categories_sizes":[],"default_left":[0,0,0,0,0,0,0,0,0,0,0,0,0,0,0],"id":66,"left_children":[1,3,5,7,9,11,13,-1,-1,-1,-1,-1,-1,-1,-1],"loss_changes":[4.0611377E2,8.6811584E2,2.680519E2,4.4231897E2,1.7883301E-1,1.9860835E2,9.656729E2,0E0,0E0,0E0,0E0,0E0,0E0,0E0,0E0],"parents":[2147483647,0,0,1,1,2,2,3,3,4,4,5,5,6,6],"right_children":[2,4,6,8,10,12,14,-1,-1,-1,-1,-1,-1,-1,-1],"split_conditions":[-1.5057735E0,-1.6375363E0,2.444582E0,-1.7544708E0,-1.5219425E0,1.9663684E0,2.5383584E0,-2.1565008E-1,3.0221805E-1,-5.4058033E-1,-3.598089E-1,-1.9660462E-3,-1.4277668E-1,1.1010118E0,3.0579094E-2],"split_indices":[1,1,1,1,1,1,1,0,0,0,0,0,0,0,0],"split_type":[0,0,0,0,0,0,0,0,0,0,0,0,0,0,0],"sum_hessian":[2.101E3,1.12E2,1.989E3,6.4E1,4.8E1,1.926E3,6.3E1,3.2E1,3.2E1,3.9E1,9E0,1.821E3,1.05E2,9E0,5.4E1],"tree_param":{"num_deleted":"0","num_feature":"2","num_nodes":"15","size_leaf_vector":"1"}},{"base_weights":[1.0023506E-1,-1.9178499E0,2.1663222E-1,2.5720093E-1,-4.467102E0,-1.14042595E-1,6.191598E-1,-9.736906E-2,7.750738E-1,-5.650267E-1,-2.0524769E-1,-4.927933E-4,-3.7385413E-1,4.4838747E-1,4.4807125E-2],"categories":[],"categories_nodes":[],"categories_segments":[],"categories_sizes":[],"default_left":[0,0,0,0,0,0,0,0,0,0,0,0,0,0,0],"id":67,"left_children":[1,3,5,7,9,11,13,-1,-1,-1,-1,-1,-1,-1,-1],"loss_changes":[4.9534842E2,6.3879553E2,2.653503E2,5.886419E2,1.398186E2,4.330387E2,5.924173E2,0E0,0E0,0E0,0E0,0E0,0E0,0E0,0E0],"parents":[2147483647,0,0,1,1,2,2,3,3,4,4,5,5,6,6],"right_children":[2,4,6,8,10,12,14,-1,-1,-1,-1,-1,-1,-1,-1],"split_conditions":[-1.5057735E0,-1.6375363E0,-1.7782219E-1,-1.6642889E0,-1.5319778E0,-2.0313348E-1,-1.5231568E-1,-9.736906E-2,7.750738E-1,-5.650267E-1,-2.0524769E-1,-4.927933E-4,-3.7385413E-1,4.4838747E-1,4.4807125E-2],"split_indices":[1,1,1,1,1,1,1,0,0,0,0,0,0,0,0],"split_type":[0,0,0,0,0,0,0,0,0,0,0,0,0,0,0],"sum_hessian":[2.106E3,1.14E2,1.992E3,6.2E1,5.2E1,1.094E3,8.98E2,5.4E1,8E0,3.4E1,1.8E1,1.063E3,3.1E1,3.7E1,8.61E2],"tree_param":{"num_deleted":"0","num_feature":"2","num_nodes":"15","size_leaf_vector":"1"}},{"base_weights":[1.20810255E-1,-3.323781E0,1.7790899E-1,-1.8634866E-1,-1.3497143E0,3.4315703E0,1.2622659E-1,-1.4398138E-1,3.2435484E-2,2.2836371E-1,5.7286596E-1,-5.373915E-3,5.8126893E-2],"categories":[],"categories_nodes":[],"categories_segments":[],"categories_sizes":[],"default_left":[0,0,0,0,0,0,0,0,0,0,0,0,0],"id":68,"left_children":[1,3,5,7,-1,9,11,-1,-1,-1,-1,-1,-1],"loss_changes":[4.1008276E2,1.0827048E3,3.4412054E2,1.7751036E1,0E0,7.12988E1,1.6528934E2,0E0,0E0,0E0,0E0,0E0,0E0],"parents":[2147483647,0,0,1,1,2,2,3,3,5,5,6,6],"right_children":[2,4,6,8,-1,10,12,-1,-1,-1,-1,-1,-1],"split_conditions":[-1.7544708E0,-1.8283327E0,-1.6375363E0,-1.9730474E0,-1.3497143E0,-1.6642889E0,4.6197945E-1,-1.4398138E-1,3.2435484E-2,2.2836371E-1,5.7286596E-1,-5.373915E-3,5.8126893E-2],"split_indices":[1,1,1,1,0,1,1,0,0,0,0,0,0],"split_type":[0,0,0,0,0,0,0,0,0,0,0,0,0],"sum_hessian":[2.081E3,3.3E1,2.048E3,2.6E1,7E0,3.1E1,2.017E3,7E0,1.9E1,2.2E1,9E0,1.446E3,5.71E2],"tree_param":{"num_deleted":"0","num_feature":"2","num_nodes":"13","size_leaf_vector":"1"}},{"base_weights":[-7.930094E-2,2.4033341E0,-1.6482668E-1,1.5840393E0,6.1629814E-1,-2.9920292E0,-8.9388765E-2,4.1301832E-1,-8.666488E-3,-1.5331426E-1,-4.6301824E-1,3.565019E-1,-1.4831498E-2],"categories":[],"categories_nodes":[],"categories_segments":[],"categories_sizes":[],"default_left":[0,0,0,0,0,0,0,0,0,0,0,0,0],"id":69,"left_children":[1,3,5,7,-1,9,11,-1,-1,-1,-1,-1,-1],"loss_changes":[4.3991757E2,2.0277551E2,4.2671558E2,2.4708144E2,0E0,1.1717508E2,4.2065787E2,0E0,0E0,0E0,0E0,0E0,0E0],"parents":[2147483647,0,0,1,1,2,2,3,3,5,5,6,6],"right_children":[2,4,6,8,-1,10,12,-1,-1,-1,-1,-1,-1],"split_conditions":[-1.6375363E0,-1.6642889E0,-1.5057735E0,-1.8283327E0,6.1629814E-1,-1.5528915E0,-1.4473058E0,4.1301832E-1,-8.666488E-3,-1.5331426E-1,-4.6301824E-1,3.565019E-1,-1.4831498E-2],"split_indices":[1,1,1,1,0,1,1,0,0,0,0,0,0],"split_type":[0,0,0,0,0,0,0,0,0,0,0,0,0],"sum_hessian":[2.069E3,6.8E1,2.001E3,5.7E1,1.1E1,5.1E1,1.95E3,2.2E1,3.5E1,2.8E1,2.3E1,3E1,1.92E3],"tree_param":{"num_deleted":"0","num_feature":"2","num_nodes":"13","size_leaf_vector":"1"}},{"base_weights":[-4.6111807E-2,-1.4173448E0,7.481958E-2,2.5923043E-1,-1.9870453E0,1.5262272E0,-1.0457827E-2,-2.2214714E-1,3.9658815E-1,-1.7658494E-1,-4.1591236E-1,-5.6499302E-2,3.3026892E-1,-1.2619254E-1,6.6808346E-3],"categories":[],"categories_nodes":[],"categories_segments":[],"categories_sizes":[],"default_left":[0,0,0,0,0,0,0,0,0,0,0,0,0,0,0],"id":70,"left_children":[1,3,5,7,9,11,13,-1,-1,-1,-1,-1,-1,-1,-1],"loss_changes":[3.4784128E2,1.628899E2,2.3864891E2,4.1339426E2,5.367331E1,3.993681E2,1.7626459E2,0E0,0E0,0E0,0E0,0E0,0E0,0E0,0E0],"parents":[2147483647,0,0,1,1,2,2,3,3,4,4,5,5,6,6],"right_children":[2,4,6,8,10,12,14,-1,-1,-1,-1,-1,-1,-1,-1],"split_conditions":[-1.6721369E0,-3.1854203E0,-1.3566291E0,-3.2371993E0,-1.703931E0,-1.5340377E0,-1.1543598E0,-2.2214714E-1,3.9658815E-1,-1.7658494E-1,-4.1591236E-1,-5.6499302E-2,3.3026892E-1,-1.2619254E-1,6.6808346E-3],"split_indices":[0,0,0,0,0,0,0,0,0,0,0,0,0,0,0],"split_type":[0,0,0,0,0,0,0,0,0,0,0,0,0,0,0],"sum_hessian":[2.096E3,1.69E2,1.927E3,4.3E1,1.26E2,1.06E2,1.821E3,2.6E1,1.7E1,1.16E2,1E1,4.9E1,5.7E1,1.05E2,1.716E3],"tree_param":{"num_deleted":"0","num_feature":"2","num_nodes":"15","size_leaf_vector":"1"}},{"base_weights":[2.588363E-1,-8.405969E-1,3.9194497E-1,1.7750895E0,-1.9941251E0,3.605592E0,2.7072683E-1,1.5715001E-2,3.2987782E-1,-3.7669876E-1,-1.1862671E-1,7.235325E-2,7.9552555E-1,-3.350909E-1,3.2964513E-2],"categories":[],"categories_nodes":[],"categories_segments":[],"categories_sizes":[],"default_left":[0,0,0,0,0,0,0,0,0,0,0,0,0,0,0],"id":71,"left_children":[1,3,5,7,9,11,13,-1,-1,-1,-1,-1,-1,-1,-1],"loss_changes":[3.0750568E2,6.884596E2,7.286554E2,1.7204814E2,2.2182227E2,8.466913E2,3.8646997E2,0E0,0E0,0E0,0E0,0E0,0E0,0E0,0E0],"parents":[2147483647,0,0,1,1,2,2,3,3,4,4,5,5,6,6],"right_children":[2,4,6,8,10,12,14,-1,-1,-1,-1,-1,-1,-1,-1],"split_conditions":[-1.3051133E0,-1.6375363E0,-1.2058679E0,-1.7544708E0,-1.5057735E0,-1.2338204E0,-1.1697525E0,1.5715001E-2,3.2987782E-1,-3.7669876E-1,-1.1862671E-1,7.235325E-2,7.9552555E-1,-3.350909E-1,3.2964513E-2],"split_indices":[1,1,1,1,1,1,1,0,0,0,0,0,0,0,0],"split_type":[0,0,0,0,0,0,0,0,0,0,0,0,0,0,0],"sum_hessian":[2.098E3,2.26E2,1.872E3,6.9E1,1.57E2,6.7E1,1.805E3,3.4E1,3.5E1,4.8E1,1.09E2,4.1E1,2.6E1,2.8E1,1.777E3],"tree_param":{"num_deleted":"0","num_feature":"2","num_nodes":"15","size_leaf_vector":"1"}},{"base_weights":[-1.9036263E-1,2.7592485E0,-2.8404605E-1,9.6785605E-2,5.2574167E0,-7.5828904E-1,2.1463294E-1,-1.0164316E-1,5.76585E-2,3.7301752E-1,8.915598E-1,2.7150968E-2,-1.029621E-1,1.8109798E-1,-1.8828595E-2],"categories":[],"categories_nodes":[],"categories_segments":[],"categories_sizes":[],"default_left":[0,0,0,0,0,0,0,0,0,0,0,0,0,0,0],"id":72,"left_children":[1,3,5,7,9,11,13,-1,-1,-1,-1,-1,-1,-1,-1],"loss_changes":[5.744442E2,4.251731E2,4.7622723E2,1.7677929E1,1.5111182E2,2.8863818E2,6.3196173E2,0E0,0E0,0E0,0E0,0E0,0E0,0E0,0E0],"parents":[2147483647,0,0,1,1,2,2,3,3,4,4,5,5,6,6],"right_children":[2,4,6,8,10,12,14,-1,-1,-1,-1,-1,-1,-1,-1],"split_conditions":[-1.6375363E0,-1.7544708E0,-2.3122558E-1,-1.9730474E0,-1.6642889E0,-1.2058679E0,-7.750127E-2,-1.0164316E-1,5.76585E-2,3.7301752E-1,8.915598E-1,2.7150968E-2,-1.029621E-1,1.8109798E-1,-1.8828595E-2],"split_indices":[1,1,1,1,1,1,1,0,0,0,0,0,0,0,0],"split_type":[0,0,0,0,0,0,0,0,0,0,0,0,0,0,0],"sum_hessian":[2.075E3,6.3E1,2.012E3,3.1E1,3.2E1,1.031E3,9.81E2,9E0,2.2E1,2.4E1,8E0,2.15E2,8.16E2,1.97E2,7.84E2],"tree_param":{"num_deleted":"0","num_feature":"2","num_nodes":"15","size_leaf_vector":"1"}},{"base_weights":[4.9925856E-2,5.9130853E-1,-3.0067435E-1,3.6606288E-1,6.885113E0,-3.5679579E0,-1.449683E-1,-6.7684054E-3,1.0273611E-1,1.2803671E0,2.8857097E-1,-6.794662E-1,-2.7368578E-1,3.1550607E-1,-2.6168352E-2],"categories":[],"categories_nodes":[],"categories_segments":[],"categories_sizes":[],"default_left":[0,0,0,0,0,0,0,0,0,0,0,0,0,0,0],"id":73,"left_children":[1,3,5,7,9,11,13,-1,-1,-1,-1,-1,-1,-1,-1],"loss_changes":[3.9213315E2,1.148613E3,6.374374E2,2.2523584E2,6.258319E2,1.3426172E2,4.622516E2,0E0,0E0,0E0,0E0,0E0,0E0,0E0,0E0],"parents":[2147483647,0,0,1,1,2,2,3,3,4,4,5,5,6,6],"right_children":[2,4,6,8,10,12,14,-1,-1,-1,-1,-1,-1,-1,-1],"split_conditions":[-4.08926E-1,-4.2482144E-1,-3.8034332E-1,-8.799475E-1,-4.1720107E-1,-4.0534902E-1,-3.5406137E-1,-6.7684054E-3,1.0273611E-1,1.2803671E0,2.8857097E-1,-6.794662E-1,-2.7368578E-1,3.1550607E-1,-2.6168352E-2],"split_indices":[1,1,1,1,1,1,1,0,0,0,0,0,0,0,0],"split_type":[0,0,0,0,0,0,0,0,0,0,0,0,0,0,0],"sum_hessian":[2.064E3,8.11E2,1.253E3,7.84E2,2.7E1,5.6E1,1.197E3,4.74E2,3.1E2,1E1,1.7E1,1E1,4.6E1,4E1,1.157E3],"tree_param":{"num_deleted":"0","num_feature":"2","num_nodes":"15","size_leaf_vector":"1"}},{"base_weights":[1.6352728E-3,-8.052984E-1,2.1132924E-1,-5.632248E-1,-1.0867652E0,1.2156863E0,1.1282703E-1,-8.212274E-2,1.9717045E-1,5.344813E-2,5.7767266E-1,-1.6589122E-1,2.6519446E-2],"categories":[],"categories_nodes":[],"categories_segments":[],"categories_sizes":[],"default_left":[0,0,0,0,0,0,0,0,0,0,0,0,0],"id":74,"left_children":[1,3,5,7,-1,9,11,-1,-1,-1,-1,-1,-1],"loss_changes":[3.5110986E2,1.0364143E3,1.6280283E2,2.7565298E2,0E0,4.536419E2,4.056429E2,0E0,0E0,0E0,0E0,0E0,0E0],"parents":[2147483647,0,0,1,1,2,2,3,3,5,5,6,6],"right_children":[2,4,6,8,-1,10,12,-1,-1,-1,-1,-1,-1],"split_conditions":[-1.1166074E0,-1.124813E0,-8.8813E-1,-1.1543598E0,-1.0867652E0,-9.351854E-1,-7.1998847E-1,-8.212274E-2,1.9717045E-1,5.344813E-2,5.7767266E-1,-1.6589122E-1,2.6519446E-2],"split_indices":[0,0,0,0,0,0,0,0,0,0,0,0,0],"split_type":[0,0,0,0,0,0,0,0,0,0,0,0,0],"sum_hessian":[2.073E3,4.27E2,1.646E3,4.18E2,9E0,1.46E2,1.5E3,3.8E2,3.8E1,1.28E2,1.8E1,1.18E2,1.382E3],"tree_param":{"num_deleted":"0","num_feature":"2","num_nodes":"13","size_leaf_vector":"1"}},{"base_weights":[2.4166897E-1,2.6101193E-1,-3.432599E-1,2.1856265E-1,4.6159906E0,2.7669756E-2,-5.1741344E-1,7.578499E-1,1.5031667E-1],"categories":[],"categories_nodes":[],"categories_segments":[],"categories_sizes":[],"default_left":[0,0,0,0,0,0,0,0,0],"id":75,"left_children":[1,3,-1,5,7,-1,-1,-1,-1],"loss_changes":[1.4922144E2,3.8295703E2,0E0,6.4662256E2,1.7304358E2,0E0,0E0,0E0,0E0],"parents":[2147483647,0,0,1,1,3,3,4,4],"right_children":[2,4,-1,6,8,-1,-1,-1,-1],"split_conditions":[3.13133E0,2.685589E0,-3.432599E-1,2.3332317E0,2.9153438E0,2.7669756E-2,-5.1741344E-1,7.578499E-1,1.5031667E-1],"split_indices":[0,0,0,0,0,0,0,0,0],"split_type":[0,0,0,0,0,0,0,0,0],"sum_hessian":[2.086E3,2.076E3,1E1,2.057E3,1.9E1,2.036E3,2.1E1,9E0,1E1],"tree_param":{"num_deleted":"0","num_feature":"2","num_nodes":"9","size_leaf_vector":"1"}},{"base_weights":[3.9533533E-2,7.524987E-2,-4.2529544E-1,-7.2643675E-2,1.4529687E0,-4.673096E-3,-6.0170096E-1,8.555102E-1,6.952271E-2],"categories":[],"categories_nodes":[],"categories_segments":[],"categories_sizes":[],"default_left":[0,0,0,0,0,0,0,0,0],"id":76,"left_children":[1,3,-1,5,7,-1,-1,-1,-1],"loss_changes":[3.15836E2,4.1617477E2,0E0,2.839128E2,1.0596055E3,0E0,0E0,0E0,0E0],"parents":[2147483647,0,0,1,1,3,3,4,4],"right_children":[2,4,-1,6,8,-1,-1,-1,-1],"split_conditions":[2.9153438E0,1.7223438E0,-4.2529544E-1,1.6999725E0,1.7513428E0,-4.673096E-3,-6.0170096E-1,8.555102E-1,6.952271E-2],"split_indices":[0,0,0,0,0,0,0,0,0],"split_type":[0,0,0,0,0,0,0,0,0],"sum_hessian":[2.057E3,2.041E3,1.6E1,1.844E3,1.97E2,1.837E3,7E0,1.8E1,1.79E2],"tree_param":{"num_deleted":"0","num_feature":"2","num_nodes":"9","size_leaf_vector":"1"}},{"base_weights":[2.0017178E-1,-4.345594E-2,9.7829634E-1,1.1485555E0,-2.0469195E-1,1.8477026E0,-1.1185524E0,8.346106E-2,8.147232E-1,-1.4547809E-2,-3.3214894E-1,5.643004E-1,1.6495898E-1,-2.639199E-1,-5.6973863E-3],"categories":[],"categories_nodes":[],"categories_segments":[],"categories_sizes":[],"default_left":[0,0,0,0,0,0,0,0,0,0,0,0,0,0,0],"id":77,"left_children":[1,3,5,7,9,11,13,-1,-1,-1,-1,-1,-1,-1,-1],"loss_changes":[3.9435373E2,3.0486444E2,9.062815E2,4.0847083E2,2.5734378E2,2.5460754E2,2.3553534E2,0E0,0E0,0E0,0E0,0E0,0E0,0E0,0E0],"parents":[2147483647,0,0,1,1,2,2,3,3,4,4,5,5,6,6],"right_children":[2,4,6,8,10,12,14,-1,-1,-1,-1,-1,-1,-1,-1],"split_conditions":[1.0620549E0,-1.592202E0,1.8695925E0,-1.6207561E0,1.0212448E0,1.0924196E0,2.0818658E0,8.346106E-2,8.147232E-1,-1.4547809E-2,-3.3214894E-1,5.643004E-1,1.6495898E-1,-2.639199E-1,-5.6973863E-3],"split_indices":[0,0,0,0,0,0,0,0,0,0,0,0,0,0,0],"split_type":[0,0,0,0,0,0,0,0,0,0,0,0,0,0,0],"sum_hessian":[2.079E3,1.584E3,4.95E2,1.88E2,1.396E3,3.5E2,1.45E2,1.81E2,7E0,1.371E3,2.5E1,1.6E1,3.34E2,5.9E1,8.6E1],"tree_param":{"num_deleted":"0","num_feature":"2","num_nodes":"15","size_leaf_vector":"1"}},{"base_weights":[-3.32201E-2,-1.1271869E-1,4.085251E0,5.4001182E-2,-9.0562314E-1,5.398773E0,1.8596385E0,-1.1982755E-2,3.6517805E-1,-2.6983002E-1,-5.0410595E-2,2.173146E-1,1.0533359E0,2.6416E-1,9.579349E-2],"categories":[],"categories_nodes":[],"categories_segments":[],"categories_sizes":[],"default_left":[0,0,0,0,0,0,0,0,0,0,0,0,0,0,0],"id":78,"left_children":[1,3,5,7,9,11,13,-1,-1,-1,-1,-1,-1,-1,-1],"loss_changes":[6.742756E2,2.670786E2,1.03972595E2,1.0448513E3,2.5128629E2,3.7460358E2,8.751076E0,0E0,0E0,0E0,0E0,0E0,0E0,0E0,0E0],"parents":[2147483647,0,0,1,1,2,2,3,3,4,4,5,5,6,6],"right_children":[2,4,6,8,10,12,14,-1,-1,-1,-1,-1,-1,-1,-1],"split_conditions":[2.4411936E0,1.3546677E0,2.9153438E0,1.1132665E0,1.5012805E0,2.685589E0,3.13133E0,-1.1982755E-2,3.6517805E-1,-2.6983002E-1,-5.0410595E-2,2.173146E-1,1.0533359E0,2.6416E-1,9.579349E-2],"split_indices":[0,0,0,0,0,0,0,0,0,0,0,0,0,0,0],"split_type":[0,0,0,0,0,0,0,0,0,0,0,0,0,0,0],"sum_hessian":[2.057E3,2.019E3,3.8E1,1.669E3,3.5E2,2.3E1,1.5E1,1.593E3,7.6E1,6.3E1,2.87E2,1.5E1,8E0,7E0,8E0],"tree_param":{"num_deleted":"0","num_feature":"2","num_nodes":"15","size_leaf_vector":"1"}},{"base_weights":[1.6783997E-1,-1.5360713E0,2.3570527E-1,-5.7173437E-1,-8.9729446E-1,7.8742176E-1,-2.5766188E-2,-1.9414875E-1,3.1292062E-2,4.6057504E-2,4.700183E-1,-9.977497E-3,2.3912647E-1],"categories":[],"categories_nodes":[],"categories_segments":[],"categories_sizes":[],"default_left":[0,0,0,0,0,0,0,0,0,0,0,0,0],"id":79,"left_children":[1,3,5,7,-1,9,11,-1,-1,-1,-1,-1,-1],"loss_changes":[2.384575E2,5.614303E2,2.8579562E2,8.664241E1,0E0,8.124773E2,2.4083423E2,0E0,0E0,0E0,0E0,0E0,0E0],"parents":[2147483647,0,0,1,1,2,2,3,3,5,5,6,6],"right_children":[2,4,6,8,-1,10,12,-1,-1,-1,-1,-1,-1],"split_conditions":[-3.053359E0,-3.0949335E0,-6.211954E-1,-3.2371993E0,-8.9729446E-1,-7.1998847E-1,2.4411936E0,-1.9414875E-1,3.1292062E-2,4.6057504E-2,4.700183E-1,-9.977497E-3,2.3912647E-1],"split_indices":[0,0,0,0,0,0,0,0,0,0,0,0,0],"split_type":[0,0,0,0,0,0,0,0,0,0,0,0,0],"sum_hessian":[2.058E3,7.8E1,1.98E3,7E1,8E0,6.36E2,1.344E3,2.7E1,4.3E1,5.88E2,4.8E1,1.305E3,3.9E1],"tree_param":{"num_deleted":"0","num_feature":"2","num_nodes":"13","size_leaf_vector":"1"}},{"base_weights":[1.9409308E-2,-4.5923557E0,1.0572835E-1,-2.7191753E0,-7.283287E0,2.776133E0,6.969709E-2,-3.3699223E-1,-1.2601611E-1,-1.1371105E0,-3.2946196E-1,-3.1013602E-2,1.0144789E0,-3.1064954E-1,1.2281304E-2],"categories":[],"categories_nodes":[],"categories_segments":[],"categories_sizes":[],"default_left":[0,0,0,0,0,0,0,0,0,0,0,0,0,0,0],"id":80,"left_children":[1,3,5,7,9,11,13,-1,-1,-1,-1,-1,-1,-1,-1],"loss_changes":[8.2332336E2,1.7173828E2,1.9512918E2,1.8540146E1,2.0711072E2,6.17171E2,3.3846936E2,0E0,0E0,0E0,0E0,0E0,0E0,0E0,0E0],"parents":[2147483647,0,0,1,1,2,2,3,3,4,4,5,5,6,6],"right_children":[2,4,6,8,10,12,14,-1,-1,-1,-1,-1,-1,-1,-1],"split_conditions":[-1.7114569E0,-1.8283327E0,-1.6375363E0,-1.8775712E0,-1.7544708E0,-1.6642889E0,-1.5319778E0,-3.3699223E-1,-1.2601611E-1,-1.1371105E0,-3.2946196E-1,-3.1013602E-2,1.0144789E0,-3.1064954E-1,1.2281304E-2],"split_indices":[1,1,1,1,1,1,1,0,0,0,0,0,0,0,0],"split_type":[0,0,0,0,0,0,0,0,0,0,0,0,0,0,0],"sum_hessian":[2.066E3,3.7E1,2.029E3,2.3E1,1.4E1,2.6E1,2.003E3,1.5E1,8E0,6E0,8E0,1.9E1,7E0,3.2E1,1.971E3],"tree_param":{"num_deleted":"0","num_feature":"2","num_nodes":"15","size_leaf_vector":"1"}},{"base_weights":[-2.234738E-1,6.9154525E-1,-5.5992603E-1,-1.3459212E0,1.0791911E0,-2.5676506E0,-3.9833102E-1,5.1709926E-1,-2.1437113E-1,9.0170205E-2,5.207397E-1,-1.8765269E-1,-5.851754E-1,3.277077E-1,-5.3456582E-2],"categories":[],"categories_nodes":[],"categories_segments":[],"categories_sizes":[],"default_left":[0,0,0,0,0,0,0,0,0,0,0,0,0,0,0],"id":81,"left_children":[1,3,5,7,9,11,13,-1,-1,-1,-1,-1,-1,-1,-1],"loss_changes":[6.342714E2,4.3901016E2,4.8758136E2,4.7380765E2,3.36748E2,2.4322772E2,7.0025415E2,0E0,0E0,0E0,0E0,0E0,0E0,0E0,0E0],"parents":[2147483647,0,0,1,1,2,2,3,3,4,4,5,5,6,6],"right_children":[2,4,6,8,10,12,14,-1,-1,-1,-1,-1,-1,-1,-1],"split_conditions":[-8.8813E-1,-3.0354028E0,-7.1998847E-1,-3.2744136E0,-9.351854E-1,-7.4917364E-1,-6.211954E-1,5.1709926E-1,-2.1437113E-1,9.0170205E-2,5.207397E-1,-1.8765269E-1,-5.851754E-1,3.277077E-1,-5.3456582E-2],"split_indices":[0,0,0,0,0,0,0,0,0,0,0,0,0,0,0],"split_type":[0,0,0,0,0,0,0,0,0,0,0,0,0,0,0],"sum_hessian":[2.058E3,5.53E2,1.505E3,8.8E1,4.65E2,1.11E2,1.394E3,9E0,7.9E1,4.47E2,1.8E1,9.3E1,1.8E1,4.9E1,1.345E3],"tree_param":{"num_deleted":"0","num_feature":"2","num_nodes":"15","size_leaf_vector":"1"}},{"base_weights":[1.2936054E-1,-1.596313E0,2.3219033E-1,1.4064904E0,-2.377949E0,2.5478966E0,1.96445E-1,-2.8506336E-1,4.434615E-1,-4.4350478E-1,-1.8661861E-1,1.1145432E-1,4.9223667E-1,-5.619487E-1,2.4140498E-2],"categories":[],"categories_nodes":[],"categories_segments":[],"categories_sizes":[],"default_left":[0,0,0,0,0,0,0,0,0,0,0,0,0,0,0],"id":82,"left_children":[1,3,5,7,9,11,13,-1,-1,-1,-1,-1,-1,-1,-1],"loss_changes":[3.7230713E2,2.8030225E2,1.6331253E2,3.3491907E2,9.068152E1,9.661746E1,5.112509E2,0E0,0E0,0E0,0E0,0E0,0E0,0E0,0E0],"parents":[2147483647,0,0,1,1,2,2,3,3,4,4,5,5,6,6],"right_children":[2,4,6,8,10,12,14,-1,-1,-1,-1,-1,-1,-1,-1],"split_conditions":[-1.5057735E0,-1.8283327E0,-1.4473058E0,-1.9730474E0,-1.7114569E0,-1.4592967E0,-1.4269273E0,-2.8506336E-1,4.434615E-1,-4.4350478E-1,-1.8661861E-1,1.1145432E-1,4.9223667E-1,-5.619487E-1,2.4140498E-2],"split_indices":[1,1,1,1,1,1,1,0,0,0,0,0,0,0,0],"split_type":[0,0,0,0,0,0,0,0,0,0,0,0,0,0,0],"sum_hessian":[2.095E3,1.17E2,1.978E3,2.4E1,9.3E1,2.9E1,1.949E3,1E1,1.4E1,1.7E1,7.6E1,1.9E1,1E1,1.4E1,1.935E3],"tree_param":{"num_deleted":"0","num_feature":"2","num_nodes":"15","size_leaf_vector":"1"}},{"base_weights":[4.3060977E-2,4.3849216E0,-4.2462245E-2,3.682358E0,6.4737743E-1,-1.8803713E0,3.0965209E-2,4.9915242E-1,2.1565826E-1,-1.351608E-1,-5.9015465E-1,3.249811E-1,-8.90078E-3],"categories":[],"categories_nodes":[],"categories_segments":[],"categories_sizes":[],"default_left":[0,0,0,0,0,0,0,0,0,0,0,0,0],"id":83,"left_children":[1,3,5,7,-1,9,11,-1,-1,-1,-1,-1,-1],"loss_changes":[7.8814825E2,3.633087E1,2.8103033E2,5.515262E1,0E0,1.6212335E2,7.7379694E2,0E0,0E0,0E0,0E0,0E0,0E0],"parents":[2147483647,0,0,1,1,2,2,3,3,5,5,6,6],"right_children":[2,4,6,8,-1,10,12,-1,-1,-1,-1,-1,-1],"split_conditions":[-3.1854203E0,-3.2176688E0,-2.088146E0,-3.2423737E0,6.4737743E-1,-2.4713404E0,-1.592202E0,4.9915242E-1,2.1565826E-1,-1.351608E-1,-5.9015465E-1,3.249811E-1,-8.90078E-3],"split_indices":[0,0,0,0,0,0,0,0,0,0,0,0,0],"split_type":[0,0,0,0,0,0,0,0,0,0,0,0,0],"sum_hessian":[2.121E3,4E1,2.081E3,3.2E1,8E0,7.9E1,2.002E3,1.6E1,1.6E1,7.1E1,8E0,7.1E1,1.931E3],"tree_param":{"num_deleted":"0","num_feature":"2","num_nodes":"13","size_leaf_vector":"1"}},{"base_weights":[1.960281E-1,-3.384607E-1,5.3342235E-1,-1.8361081E-1,-8.3990616E-1,4.136428E0,4.3029645E-1,-4.9007433E-3,-1.69503E-1,1.3391873E-1,7.019436E-1,-2.4701734E-1,5.3003468E-2],"categories":[],"categories_nodes":[],"categories_segments":[],"categories_sizes":[],"default_left":[0,0,0,0,0,0,0,0,0,0,0,0,0],"id":84,"left_children":[1,3,5,7,-1,9,11,-1,-1,-1,-1,-1,-1],"loss_changes":[3.713068E2,9.932598E2,4.6713293E2,1.5921213E2,0E0,2.7285602E2,3.565544E2,0E0,0E0,0E0,0E0,0E0,0E0],"parents":[2147483647,0,0,1,1,2,2,3,3,5,5,6,6],"right_children":[2,4,6,8,-1,10,12,-1,-1,-1,-1,-1,-1],"split_conditions":[-5.217817E-1,-5.4280263E-1,-4.7162437E-1,-6.211954E-1,-8.3990616E-1,-4.9713108E-1,-3.924223E-1,-4.9007433E-3,-1.69503E-1,1.3391873E-1,7.019436E-1,-2.4701734E-1,5.3003468E-2],"split_indices":[0,0,0,0,0,0,0,0,0,0,0,0,0],"split_type":[0,0,0,0,0,0,0,0,0,0,0,0,0],"sum_hessian":[2.057E3,7.96E2,1.261E3,7.82E2,1.4E1,3.4E1,1.227E3,7.19E2,6.3E1,1.8E1,1.6E1,4E1,1.187E3],"tree_param":{"num_deleted":"0","num_feature":"2","num_nodes":"13","size_leaf_vector":"1"}},{"base_weights":[-1.3317402E-1,-4.6756184E-1,1.2785522E0,-2.7177784E-1,-1.9839725E0,1.1856307E0,9.722141E-1,-3.5563968E-2,1.2041157E0,-3.508335E-1,-1.20016806E-1,1.6825576E-1,-8.824372E-2],"categories":[],"categories_nodes":[],"categories_segments":[],"categories_sizes":[],"default_left":[0,0,0,0,0,0,0,0,0,0,0,0,0],"id":85,"left_children":[1,3,5,7,9,-1,11,-1,-1,-1,-1,-1,-1],"loss_changes":[9.7116156E2,4.931871E2,1.2651787E3,1.526313E3,2.2280182E2,0E0,5.0738153E2,0E0,0E0,0E0,0E0,0E0,0E0],"parents":[2147483647,0,0,1,1,2,2,3,3,4,4,6,6],"right_children":[2,4,6,8,10,-1,12,-1,-1,-1,-1,-1,-1],"split_conditions":[1.3157382E0,8.194671E-1,1.3434299E0,7.9182494E-1,9.9879396E-1,1.1856307E0,1.9360878E0,-3.5563968E-2,1.2041157E0,-3.508335E-1,-1.20016806E-1,1.6825576E-1,-8.824372E-2],"split_indices":[0,0,0,0,0,0,0,0,0,0,0,0,0],"split_type":[0,0,0,0,0,0,0,0,0,0,0,0,0],"sum_hessian":[2.055E3,1.662E3,3.93E2,1.473E3,1.89E2,1E1,3.83E2,1.464E3,9E0,6.3E1,1.26E2,2.77E2,1.06E2],"tree_param":{"num_deleted":"0","num_feature":"2","num_nodes":"13","size_leaf_vector":"1"}},{"base_weights":[-7.861147E-2,-5.8822507E-1,3.741958E-1,-1.8777953E-1,-2.006298E0,3.1014836E0,2.1961387E-1,-3.0584527E-2,5.4468364E-1,-1.7792955E-1,-5.466548E-1,7.3486274E-1,2.306757E-1,3.8939986E-2,-1.0665061E-1],"categories":[],"categories_nodes":[],"categories_segments":[],"categories_sizes":[],"default_left":[0,0,0,0,0,0,0,0,0,0,0,0,0,0,0],"id":86,"left_children":[1,3,5,7,9,11,13,-1,-1,-1,-1,-1,-1,-1,-1],"loss_changes":[4.8803992E2,5.646449E2,4.7149915E2,5.1856903E2,1.622948E2,1.8556744E2,2.3210071E2,0E0,0E0,0E0,0E0,0E0,0E0,0E0,0E0],"parents":[2147483647,0,0,1,1,2,2,3,3,4,4,5,5,6,6],"right_children":[2,4,6,8,10,12,14,-1,-1,-1,-1,-1,-1,-1,-1],"split_conditions":[-1.3697246E-1,-5.67939E-1,-9.485837E-3,-5.9363174E-1,-1.5890852E-1,-1.179531E-1,1.9222976E0,-3.0584527E-2,5.4468364E-1,-1.7792955E-1,-5.466548E-1,7.3486274E-1,2.306757E-1,3.8939986E-2,-1.0665061E-1],"split_indices":[0,0,0,0,0,0,0,0,0,0,0,0,0,0,0],"split_type":[0,0,0,0,0,0,0,0,0,0,0,0,0,0,0],"sum_hessian":[2.113E3,9.94E2,1.119E3,7.76E2,2.18E2,5.9E1,1.06E3,7.61E2,1.5E1,2.06E2,1.2E1,8E0,5.1E1,9.37E2,1.23E2],"tree_param":{"num_deleted":"0","num_feature":"2","num_nodes":"15","size_leaf_vector":"1"}},{"base_weights":[-2.9881024E-1,-1.2505013E-1,-1.0049884E0,-1.8248065E-1,1.1814591E0,-2.5975149E0,6.8015194E-1,-2.183438E-2,3.10316E-1,-2.327249E-1,-7.7971303E-1,4.297966E-1,-6.048178E-3],"categories":[],"categories_nodes":[],"categories_segments":[],"categories_sizes":[],"default_left":[0,0,0,0,0,0,0,0,0,0,0,0,0],"id":87,"left_children":[1,3,5,7,-1,9,11,-1,-1,-1,-1,-1,-1],"loss_changes":[2.5473383E2,1.145903E3,1.1020552E3,1.9639899E2,0E0,2.783678E2,5.3615497E2,0E0,0E0,0E0,0E0,0E0,0E0],"parents":[2147483647,0,0,1,1,2,2,3,3,5,5,6,6],"right_children":[2,4,6,8,-1,10,12,-1,-1,-1,-1,-1,-1],"split_conditions":[1.1283262E0,1.106004E0,1.824001E0,1.0668417E0,1.1814591E0,1.776502E0,1.9663684E0,-2.183438E-2,3.10316E-1,-2.327249E-1,-7.7971303E-1,4.297966E-1,-6.048178E-3],"split_indices":[1,1,1,1,0,1,1,0,0,0,0,0,0],"split_type":[0,0,0,0,0,0,0,0,0,0,0,0,0],"sum_hessian":[2.076E3,1.667E3,4.09E2,1.66E3,7E0,2.1E2,1.99E2,1.643E3,1.7E1,2.01E2,9E0,3.3E1,1.66E2],"tree_param":{"num_deleted":"0","num_feature":"2","num_nodes":"13","size_leaf_vector":"1"}},{"base_weights":[2.4064101E-1,5.2165073E-1,-3.8395584E-1,1.6738817E-1,2.2760992E0,-5.67583E-1,-1.5288396E-1,3.352137E-2,-1.1311127E-1,7.3928416E-1,2.0686881E-1,5.926377E-1,-3.1340513E-2],"categories":[],"categories_nodes":[],"categories_segments":[],"categories_sizes":[],"default_left":[0,0,0,0,0,0,0,0,0,0,0,0,0],"id":88,"left_children":[1,3,5,7,9,-1,11,-1,-1,-1,-1,-1,-1],"loss_changes":[3.6527725E2,8.915222E2,7.8906305E2,2.6079547E2,2.4047241E2,0E0,6.068844E2,0E0,0E0,0E0,0E0,0E0,0E0],"parents":[2147483647,0,0,1,1,2,2,3,3,4,4,6,6],"right_children":[2,4,6,8,10,-1,12,-1,-1,-1,-1,-1,-1],"split_conditions":[7.240053E-1,2.932707E-1,7.757513E-1,5.449334E-2,3.0682766E-1,-5.67583E-1,8.194671E-1,3.352137E-2,-1.1311127E-1,7.3928416E-1,2.0686881E-1,5.926377E-1,-3.1340513E-2],"split_indices":[0,0,0,0,0,0,0,0,0,0,0,0,0],"split_type":[0,0,0,0,0,0,0,0,0,0,0,0,0],"sum_hessian":[2.079E3,1.434E3,6.45E2,1.194E3,2.4E2,2.6E1,6.19E2,1.058E3,1.36E2,8E0,2.32E2,1.5E1,6.04E2],"tree_param":{"num_deleted":"0","num_feature":"2","num_nodes":"13","size_leaf_vector":"1"}},{"base_weights":[9.490748E-2,1.9068189E-1,-1.5878581E0,4.766812E-2,3.376341E0,-6.8391805E0,-6.6071177E-1,9.640046E-3,-4.5794144E-1,1.0467479E0,2.4115656E-1,-3.529651E-1,-1.0121195E0,2.1747267E-1,-2.0050895E-1],"categories":[],"categories_nodes":[],"categories_segments":[],"categories_sizes":[],"default_left":[0,0,0,0,0,0,0,0,0,0,0,0,0,0,0],"id":89,"left_children":[1,3,5,7,9,11,13,-1,-1,-1,-1,-1,-1,-1,-1],"loss_changes":[3.4116858E2,9.1193646E2,5.505181E2,4.3270306E2,5.6311365E2,1.489284E2,3.779268E2,0E0,0E0,0E0,0E0,0E0,0E0,0E0,0E0],"parents":[2147483647,0,0,1,1,2,2,3,3,4,4,5,5,6,6],"right_children":[2,4,6,8,10,12,14,-1,-1,-1,-1,-1,-1,-1,-1],"split_conditions":[1.9360878E0,1.7317933E0,1.986241E0,1.6999725E0,1.7513428E0,1.9572505E0,2.169377E0,9.640046E-3,-4.5794144E-1,1.0467479E0,2.4115656E-1,-3.529651E-1,-1.0121195E0,2.1747267E-1,-2.0050895E-1],"split_indices":[0,0,0,0,0,0,0,0,0,0,0,0,0,0,0],"split_type":[0,0,0,0,0,0,0,0,0,0,0,0,0,0,0],"sum_hessian":[2.114E3,2.001E3,1.13E2,1.916E3,8.5E1,1.6E1,9.7E1,1.897E3,1.9E1,9E0,7.6E1,9E0,7E0,3.1E1,6.6E1],"tree_param":{"num_deleted":"0","num_feature":"2","num_nodes":"15","size_leaf_vector":"1"}},{"base_weights":[9.868171E-3,1.2178739E0,-1.8790813E-1,8.775199E-1,3.8147922E0,-1.6068627E0,7.316132E-2,1.24977194E-1,-4.2586756E-1,5.9071726E-1,2.696835E-1,-4.0286433E-2,-3.063657E-1,1.4039906E0,-1.8833819E-3],"categories":[],"categories_nodes":[],"categories_segments":[],"categories_sizes":[],"default_left":[0,0,0,0,0,0,0,0,0,0,0,0,0,0,0],"id":90,"left_children":[1,3,5,7,9,11,13,-1,-1,-1,-1,-1,-1,-1,-1],"loss_changes":[5.0266687E2,2.5827844E2,6.6988324E2,5.0816766E2,6.3601776E1,4.9163367E2,1.9635498E3,0E0,0E0,0E0,0E0,0E0,0E0,0E0,0E0],"parents":[2147483647,0,0,1,1,2,2,3,3,4,4,5,5,6,6],"right_children":[2,4,6,8,10,12,14,-1,-1,-1,-1,-1,-1,-1,-1],"split_conditions":[-1.1917373E0,-1.2338204E0,-7.566103E-1,-1.2658942E0,-1.2221289E0,-9.342038E-1,-7.356742E-1,1.24977194E-1,-4.2586756E-1,5.9071726E-1,2.696835E-1,-4.0286433E-2,-3.063657E-1,1.4039906E0,-1.8833819E-3],"split_indices":[1,1,1,1,1,1,1,0,0,0,0,0,0,0,0],"split_type":[0,0,0,0,0,0,0,0,0,0,0,0,0,0,0],"sum_hessian":[2.102E3,2.95E2,1.807E3,2.62E2,3.3E1,